digraph Tree {
node [shape=box] ;
0 [label="X[3] <= 3.5\ngini = 0.858\nsamples = 18588\nvalue = [6996, 1, 1 ..., 1, 1, 1]"] ;
1 [label="X[4] <= 5.5\ngini = 0.777\nsamples = 14808\nvalue = [6996, 0, 0 ..., 1, 1, 1]"] ;
0 -> 1 [labeldistance=2.5, labelangle=45, headlabel="True"] ;
2 [label="X[4] <= 0.5\ngini = 1.0\nsamples = 3687\nvalue = [1, 0, 0 ..., 0, 0, 1]"] ;
1 -> 2 ;
3 [label="X[0] <= 1.5\ngini = 0.998\nsamples = 615\nvalue = [1, 0, 0 ..., 0, 0, 0]"] ;
2 -> 3 ;
4 [label="X[1] <= 1.5\ngini = 0.976\nsamples = 41\nvalue = [1, 0, 0 ..., 0, 0, 0]"] ;
3 -> 4 ;
5 [label="X[2] <= 3.0\ngini = 0.833\nsamples = 6\nvalue = [1, 0, 0 ..., 0, 0, 0]"] ;
4 -> 5 ;
6 [label="gini = 0.0\nsamples = 1\nvalue = [1, 0, 0 ..., 0, 0, 0]"] ;
5 -> 6 ;
7 [label="X[2] <= 7.0\ngini = 0.8\nsamples = 5\nvalue = [0, 0, 0 ..., 0, 0, 0]"] ;
5 -> 7 ;
8 [label="gini = 0.0\nsamples = 1\nvalue = [0, 0, 0 ..., 0, 0, 0]"] ;
7 -> 8 ;
9 [label="X[2] <= 11.0\ngini = 0.75\nsamples = 4\nvalue = [0, 0, 0 ..., 0, 0, 0]"] ;
7 -> 9 ;
10 [label="gini = 0.0\nsamples = 1\nvalue = [0, 0, 0 ..., 0, 0, 0]"] ;
9 -> 10 ;
11 [label="X[2] <= 15.0\ngini = 0.667\nsamples = 3\nvalue = [0, 0, 0 ..., 0, 0, 0]"] ;
9 -> 11 ;
12 [label="gini = 0.0\nsamples = 1\nvalue = [0, 0, 0 ..., 0, 0, 0]"] ;
11 -> 12 ;
13 [label="X[2] <= 19.0\ngini = 0.5\nsamples = 2\nvalue = [0, 0, 0 ..., 0, 0, 0]"] ;
11 -> 13 ;
14 [label="gini = 0.0\nsamples = 1\nvalue = [0, 0, 0 ..., 0, 0, 0]"] ;
13 -> 14 ;
15 [label="gini = 0.0\nsamples = 1\nvalue = [0, 0, 0 ..., 0, 0, 0]"] ;
13 -> 15 ;
16 [label="X[2] <= 3.0\ngini = 0.971\nsamples = 35\nvalue = [0, 0, 0 ..., 0, 0, 0]"] ;
4 -> 16 ;
17 [label="X[1] <= 2.5\ngini = 0.833\nsamples = 6\nvalue = [0, 0, 0 ..., 0, 0, 0]"] ;
16 -> 17 ;
18 [label="gini = 0.0\nsamples = 1\nvalue = [0, 0, 0 ..., 0, 0, 0]"] ;
17 -> 18 ;
19 [label="X[1] <= 3.5\ngini = 0.8\nsamples = 5\nvalue = [0, 0, 0 ..., 0, 0, 0]"] ;
17 -> 19 ;
20 [label="gini = 0.0\nsamples = 1\nvalue = [0, 0, 0 ..., 0, 0, 0]"] ;
19 -> 20 ;
21 [label="X[1] <= 4.5\ngini = 0.75\nsamples = 4\nvalue = [0, 0, 0 ..., 0, 0, 0]"] ;
19 -> 21 ;
22 [label="gini = 0.0\nsamples = 1\nvalue = [0, 0, 0 ..., 0, 0, 0]"] ;
21 -> 22 ;
23 [label="X[1] <= 5.5\ngini = 0.667\nsamples = 3\nvalue = [0, 0, 0 ..., 0, 0, 0]"] ;
21 -> 23 ;
24 [label="gini = 0.0\nsamples = 1\nvalue = [0, 0, 0 ..., 0, 0, 0]"] ;
23 -> 24 ;
25 [label="X[1] <= 6.5\ngini = 0.5\nsamples = 2\nvalue = [0, 0, 0 ..., 0, 0, 0]"] ;
23 -> 25 ;
26 [label="gini = 0.0\nsamples = 1\nvalue = [0, 0, 0 ..., 0, 0, 0]"] ;
25 -> 26 ;
27 [label="gini = 0.0\nsamples = 1\nvalue = [0, 0, 0 ..., 0, 0, 0]"] ;
25 -> 27 ;
28 [label="X[1] <= 2.5\ngini = 0.966\nsamples = 29\nvalue = [0, 0, 0 ..., 0, 0, 0]"] ;
16 -> 28 ;
29 [label="X[2] <= 7.0\ngini = 0.75\nsamples = 4\nvalue = [0, 0, 0 ..., 0, 0, 0]"] ;
28 -> 29 ;
30 [label="gini = 0.0\nsamples = 1\nvalue = [0, 0, 0 ..., 0, 0, 0]"] ;
29 -> 30 ;
31 [label="X[2] <= 11.0\ngini = 0.667\nsamples = 3\nvalue = [0, 0, 0 ..., 0, 0, 0]"] ;
29 -> 31 ;
32 [label="gini = 0.0\nsamples = 1\nvalue = [0, 0, 0 ..., 0, 0, 0]"] ;
31 -> 32 ;
33 [label="X[2] <= 17.0\ngini = 0.5\nsamples = 2\nvalue = [0, 0, 0 ..., 0, 0, 0]"] ;
31 -> 33 ;
34 [label="gini = 0.0\nsamples = 1\nvalue = [0, 0, 0 ..., 0, 0, 0]"] ;
33 -> 34 ;
35 [label="gini = 0.0\nsamples = 1\nvalue = [0, 0, 0 ..., 0, 0, 0]"] ;
33 -> 35 ;
36 [label="X[2] <= 7.0\ngini = 0.96\nsamples = 25\nvalue = [0, 0, 0 ..., 0, 0, 0]"] ;
28 -> 36 ;
37 [label="X[1] <= 3.5\ngini = 0.8\nsamples = 5\nvalue = [0, 0, 0 ..., 0, 0, 0]"] ;
36 -> 37 ;
38 [label="gini = 0.0\nsamples = 1\nvalue = [0, 0, 0 ..., 0, 0, 0]"] ;
37 -> 38 ;
39 [label="X[1] <= 4.5\ngini = 0.75\nsamples = 4\nvalue = [0, 0, 0 ..., 0, 0, 0]"] ;
37 -> 39 ;
40 [label="gini = 0.0\nsamples = 1\nvalue = [0, 0, 0 ..., 0, 0, 0]"] ;
39 -> 40 ;
41 [label="X[1] <= 5.5\ngini = 0.667\nsamples = 3\nvalue = [0, 0, 0 ..., 0, 0, 0]"] ;
39 -> 41 ;
42 [label="gini = 0.0\nsamples = 1\nvalue = [0, 0, 0 ..., 0, 0, 0]"] ;
41 -> 42 ;
43 [label="X[1] <= 6.5\ngini = 0.5\nsamples = 2\nvalue = [0, 0, 0 ..., 0, 0, 0]"] ;
41 -> 43 ;
44 [label="gini = 0.0\nsamples = 1\nvalue = [0, 0, 0 ..., 0, 0, 0]"] ;
43 -> 44 ;
45 [label="gini = 0.0\nsamples = 1\nvalue = [0, 0, 0 ..., 0, 0, 0]"] ;
43 -> 45 ;
46 [label="X[1] <= 3.5\ngini = 0.95\nsamples = 20\nvalue = [0, 0, 0 ..., 0, 0, 0]"] ;
36 -> 46 ;
47 [label="X[2] <= 11.0\ngini = 0.75\nsamples = 4\nvalue = [0, 0, 0 ..., 0, 0, 0]"] ;
46 -> 47 ;
48 [label="gini = 0.0\nsamples = 1\nvalue = [0, 0, 0 ..., 0, 0, 0]"] ;
47 -> 48 ;
49 [label="X[2] <= 15.0\ngini = 0.667\nsamples = 3\nvalue = [0, 0, 0 ..., 0, 0, 0]"] ;
47 -> 49 ;
50 [label="gini = 0.0\nsamples = 1\nvalue = [0, 0, 0 ..., 0, 0, 0]"] ;
49 -> 50 ;
51 [label="X[2] <= 19.0\ngini = 0.5\nsamples = 2\nvalue = [0, 0, 0 ..., 0, 0, 0]"] ;
49 -> 51 ;
52 [label="gini = 0.0\nsamples = 1\nvalue = [0, 0, 0 ..., 0, 0, 0]"] ;
51 -> 52 ;
53 [label="gini = 0.0\nsamples = 1\nvalue = [0, 0, 0 ..., 0, 0, 0]"] ;
51 -> 53 ;
54 [label="X[1] <= 4.5\ngini = 0.938\nsamples = 16\nvalue = [0, 0, 0 ..., 0, 0, 0]"] ;
46 -> 54 ;
55 [label="X[2] <= 11.0\ngini = 0.75\nsamples = 4\nvalue = [0, 0, 0 ..., 0, 0, 0]"] ;
54 -> 55 ;
56 [label="gini = 0.0\nsamples = 1\nvalue = [0, 0, 0 ..., 0, 0, 0]"] ;
55 -> 56 ;
57 [label="X[2] <= 15.0\ngini = 0.667\nsamples = 3\nvalue = [0, 0, 0 ..., 0, 0, 0]"] ;
55 -> 57 ;
58 [label="gini = 0.0\nsamples = 1\nvalue = [0, 0, 0 ..., 0, 0, 0]"] ;
57 -> 58 ;
59 [label="X[2] <= 19.0\ngini = 0.5\nsamples = 2\nvalue = [0, 0, 0 ..., 0, 0, 0]"] ;
57 -> 59 ;
60 [label="gini = 0.0\nsamples = 1\nvalue = [0, 0, 0 ..., 0, 0, 0]"] ;
59 -> 60 ;
61 [label="gini = 0.0\nsamples = 1\nvalue = [0, 0, 0 ..., 0, 0, 0]"] ;
59 -> 61 ;
62 [label="X[2] <= 11.0\ngini = 0.917\nsamples = 12\nvalue = [0, 0, 0 ..., 0, 0, 0]"] ;
54 -> 62 ;
63 [label="X[1] <= 5.5\ngini = 0.667\nsamples = 3\nvalue = [0, 0, 0 ..., 0, 0, 0]"] ;
62 -> 63 ;
64 [label="gini = 0.0\nsamples = 1\nvalue = [0, 0, 0 ..., 0, 0, 0]"] ;
63 -> 64 ;
65 [label="X[1] <= 6.5\ngini = 0.5\nsamples = 2\nvalue = [0, 0, 0 ..., 0, 0, 0]"] ;
63 -> 65 ;
66 [label="gini = 0.0\nsamples = 1\nvalue = [0, 0, 0 ..., 0, 0, 0]"] ;
65 -> 66 ;
67 [label="gini = 0.0\nsamples = 1\nvalue = [0, 0, 0 ..., 0, 0, 0]"] ;
65 -> 67 ;
68 [label="X[2] <= 15.0\ngini = 0.889\nsamples = 9\nvalue = [0, 0, 0 ..., 0, 0, 0]"] ;
62 -> 68 ;
69 [label="X[1] <= 5.5\ngini = 0.667\nsamples = 3\nvalue = [0, 0, 0 ..., 0, 0, 0]"] ;
68 -> 69 ;
70 [label="gini = 0.0\nsamples = 1\nvalue = [0, 0, 0 ..., 0, 0, 0]"] ;
69 -> 70 ;
71 [label="X[1] <= 6.5\ngini = 0.5\nsamples = 2\nvalue = [0, 0, 0 ..., 0, 0, 0]"] ;
69 -> 71 ;
72 [label="gini = 0.0\nsamples = 1\nvalue = [0, 0, 0 ..., 0, 0, 0]"] ;
71 -> 72 ;
73 [label="gini = 0.0\nsamples = 1\nvalue = [0, 0, 0 ..., 0, 0, 0]"] ;
71 -> 73 ;
74 [label="X[1] <= 5.5\ngini = 0.833\nsamples = 6\nvalue = [0, 0, 0 ..., 0, 0, 0]"] ;
68 -> 74 ;
75 [label="X[2] <= 19.0\ngini = 0.5\nsamples = 2\nvalue = [0, 0, 0 ..., 0, 0, 0]"] ;
74 -> 75 ;
76 [label="gini = 0.0\nsamples = 1\nvalue = [0, 0, 0 ..., 0, 0, 0]"] ;
75 -> 76 ;
77 [label="gini = 0.0\nsamples = 1\nvalue = [0, 0, 0 ..., 0, 0, 0]"] ;
75 -> 77 ;
78 [label="X[1] <= 6.5\ngini = 0.75\nsamples = 4\nvalue = [0, 0, 0 ..., 0, 0, 0]"] ;
74 -> 78 ;
79 [label="X[2] <= 19.0\ngini = 0.5\nsamples = 2\nvalue = [0, 0, 0 ..., 0, 0, 0]"] ;
78 -> 79 ;
80 [label="gini = 0.0\nsamples = 1\nvalue = [0, 0, 0 ..., 0, 0, 0]"] ;
79 -> 80 ;
81 [label="gini = 0.0\nsamples = 1\nvalue = [0, 0, 0 ..., 0, 0, 0]"] ;
79 -> 81 ;
82 [label="X[2] <= 19.0\ngini = 0.5\nsamples = 2\nvalue = [0, 0, 0 ..., 0, 0, 0]"] ;
78 -> 82 ;
83 [label="gini = 0.0\nsamples = 1\nvalue = [0, 0, 0 ..., 0, 0, 0]"] ;
82 -> 83 ;
84 [label="gini = 0.0\nsamples = 1\nvalue = [0, 0, 0 ..., 0, 0, 0]"] ;
82 -> 84 ;
85 [label="X[1] <= 1.5\ngini = 0.998\nsamples = 574\nvalue = [0, 0, 0 ..., 0, 0, 0]"] ;
3 -> 85 ;
86 [label="X[0] <= 2.5\ngini = 0.988\nsamples = 84\nvalue = [0, 0, 0 ..., 0, 0, 0]"] ;
85 -> 86 ;
87 [label="X[2] <= 3.0\ngini = 0.833\nsamples = 6\nvalue = [0, 0, 0 ..., 0, 0, 0]"] ;
86 -> 87 ;
88 [label="gini = 0.0\nsamples = 1\nvalue = [0, 0, 0 ..., 0, 0, 0]"] ;
87 -> 88 ;
89 [label="X[2] <= 7.0\ngini = 0.8\nsamples = 5\nvalue = [0, 0, 0 ..., 0, 0, 0]"] ;
87 -> 89 ;
90 [label="gini = 0.0\nsamples = 1\nvalue = [0, 0, 0 ..., 0, 0, 0]"] ;
89 -> 90 ;
91 [label="X[2] <= 11.0\ngini = 0.75\nsamples = 4\nvalue = [0, 0, 0 ..., 0, 0, 0]"] ;
89 -> 91 ;
92 [label="gini = 0.0\nsamples = 1\nvalue = [0, 0, 0 ..., 0, 0, 0]"] ;
91 -> 92 ;
93 [label="X[2] <= 15.0\ngini = 0.667\nsamples = 3\nvalue = [0, 0, 0 ..., 0, 0, 0]"] ;
91 -> 93 ;
94 [label="gini = 0.0\nsamples = 1\nvalue = [0, 0, 0 ..., 0, 0, 0]"] ;
93 -> 94 ;
95 [label="X[2] <= 19.0\ngini = 0.5\nsamples = 2\nvalue = [0, 0, 0 ..., 0, 0, 0]"] ;
93 -> 95 ;
96 [label="gini = 0.0\nsamples = 1\nvalue = [0, 0, 0 ..., 0, 0, 0]"] ;
95 -> 96 ;
97 [label="gini = 0.0\nsamples = 1\nvalue = [0, 0, 0 ..., 0, 0, 0]"] ;
95 -> 97 ;
98 [label="X[0] <= 3.5\ngini = 0.987\nsamples = 78\nvalue = [0, 0, 0 ..., 0, 0, 0]"] ;
86 -> 98 ;
99 [label="X[2] <= 3.0\ngini = 0.833\nsamples = 6\nvalue = [0, 0, 0 ..., 0, 0, 0]"] ;
98 -> 99 ;
100 [label="gini = 0.0\nsamples = 1\nvalue = [0, 0, 0 ..., 0, 0, 0]"] ;
99 -> 100 ;
101 [label="X[2] <= 7.0\ngini = 0.8\nsamples = 5\nvalue = [0, 0, 0 ..., 0, 0, 0]"] ;
99 -> 101 ;
102 [label="gini = 0.0\nsamples = 1\nvalue = [0, 0, 0 ..., 0, 0, 0]"] ;
101 -> 102 ;
103 [label="X[2] <= 11.0\ngini = 0.75\nsamples = 4\nvalue = [0, 0, 0 ..., 0, 0, 0]"] ;
101 -> 103 ;
104 [label="gini = 0.0\nsamples = 1\nvalue = [0, 0, 0 ..., 0, 0, 0]"] ;
103 -> 104 ;
105 [label="X[2] <= 15.0\ngini = 0.667\nsamples = 3\nvalue = [0, 0, 0 ..., 0, 0, 0]"] ;
103 -> 105 ;
106 [label="gini = 0.0\nsamples = 1\nvalue = [0, 0, 0 ..., 0, 0, 0]"] ;
105 -> 106 ;
107 [label="X[2] <= 19.0\ngini = 0.5\nsamples = 2\nvalue = [0, 0, 0 ..., 0, 0, 0]"] ;
105 -> 107 ;
108 [label="gini = 0.0\nsamples = 1\nvalue = [0, 0, 0 ..., 0, 0, 0]"] ;
107 -> 108 ;
109 [label="gini = 0.0\nsamples = 1\nvalue = [0, 0, 0 ..., 0, 0, 0]"] ;
107 -> 109 ;
110 [label="X[2] <= 3.0\ngini = 0.986\nsamples = 72\nvalue = [0, 0, 0 ..., 0, 0, 0]"] ;
98 -> 110 ;
111 [label="X[0] <= 4.5\ngini = 0.917\nsamples = 12\nvalue = [0, 0, 0 ..., 0, 0, 0]"] ;
110 -> 111 ;
112 [label="gini = 0.0\nsamples = 1\nvalue = [0, 0, 0 ..., 0, 0, 0]"] ;
111 -> 112 ;
113 [label="X[0] <= 5.5\ngini = 0.909\nsamples = 11\nvalue = [0, 0, 0 ..., 0, 0, 0]"] ;
111 -> 113 ;
114 [label="gini = 0.0\nsamples = 1\nvalue = [0, 0, 0 ..., 0, 0, 0]"] ;
113 -> 114 ;
115 [label="X[0] <= 6.5\ngini = 0.9\nsamples = 10\nvalue = [0, 0, 0 ..., 0, 0, 0]"] ;
113 -> 115 ;
116 [label="gini = 0.0\nsamples = 1\nvalue = [0, 0, 0 ..., 0, 0, 0]"] ;
115 -> 116 ;
117 [label="X[0] <= 7.5\ngini = 0.889\nsamples = 9\nvalue = [0, 0, 0 ..., 0, 0, 0]"] ;
115 -> 117 ;
118 [label="gini = 0.0\nsamples = 1\nvalue = [0, 0, 0 ..., 0, 0, 0]"] ;
117 -> 118 ;
119 [label="X[0] <= 8.5\ngini = 0.875\nsamples = 8\nvalue = [0, 0, 0 ..., 0, 0, 0]"] ;
117 -> 119 ;
120 [label="gini = 0.0\nsamples = 1\nvalue = [0, 0, 0 ..., 0, 0, 0]"] ;
119 -> 120 ;
121 [label="X[0] <= 9.5\ngini = 0.857\nsamples = 7\nvalue = [0, 0, 0 ..., 0, 0, 0]"] ;
119 -> 121 ;
122 [label="gini = 0.0\nsamples = 1\nvalue = [0, 0, 0 ..., 0, 0, 0]"] ;
121 -> 122 ;
123 [label="X[0] <= 10.5\ngini = 0.833\nsamples = 6\nvalue = [0, 0, 0 ..., 0, 0, 0]"] ;
121 -> 123 ;
124 [label="gini = 0.0\nsamples = 1\nvalue = [0, 0, 0 ..., 0, 0, 0]"] ;
123 -> 124 ;
125 [label="X[0] <= 11.5\ngini = 0.8\nsamples = 5\nvalue = [0, 0, 0 ..., 0, 0, 0]"] ;
123 -> 125 ;
126 [label="gini = 0.0\nsamples = 1\nvalue = [0, 0, 0 ..., 0, 0, 0]"] ;
125 -> 126 ;
127 [label="X[0] <= 12.5\ngini = 0.75\nsamples = 4\nvalue = [0, 0, 0 ..., 0, 0, 0]"] ;
125 -> 127 ;
128 [label="gini = 0.0\nsamples = 1\nvalue = [0, 0, 0 ..., 0, 0, 0]"] ;
127 -> 128 ;
129 [label="X[0] <= 13.5\ngini = 0.667\nsamples = 3\nvalue = [0, 0, 0 ..., 0, 0, 0]"] ;
127 -> 129 ;
130 [label="gini = 0.0\nsamples = 1\nvalue = [0, 0, 0 ..., 0, 0, 0]"] ;
129 -> 130 ;
131 [label="X[0] <= 14.5\ngini = 0.5\nsamples = 2\nvalue = [0, 0, 0 ..., 0, 0, 0]"] ;
129 -> 131 ;
132 [label="gini = 0.0\nsamples = 1\nvalue = [0, 0, 0 ..., 0, 0, 0]"] ;
131 -> 132 ;
133 [label="gini = 0.0\nsamples = 1\nvalue = [0, 0, 0 ..., 0, 0, 0]"] ;
131 -> 133 ;
134 [label="X[2] <= 7.0\ngini = 0.983\nsamples = 60\nvalue = [0, 0, 0 ..., 0, 0, 0]"] ;
110 -> 134 ;
135 [label="X[0] <= 4.5\ngini = 0.917\nsamples = 12\nvalue = [0, 0, 0 ..., 0, 0, 0]"] ;
134 -> 135 ;
136 [label="gini = 0.0\nsamples = 1\nvalue = [0, 0, 0 ..., 0, 0, 0]"] ;
135 -> 136 ;
137 [label="X[0] <= 5.5\ngini = 0.909\nsamples = 11\nvalue = [0, 0, 0 ..., 0, 0, 0]"] ;
135 -> 137 ;
138 [label="gini = 0.0\nsamples = 1\nvalue = [0, 0, 0 ..., 0, 0, 0]"] ;
137 -> 138 ;
139 [label="X[0] <= 6.5\ngini = 0.9\nsamples = 10\nvalue = [0, 0, 0 ..., 0, 0, 0]"] ;
137 -> 139 ;
140 [label="gini = 0.0\nsamples = 1\nvalue = [0, 0, 0 ..., 0, 0, 0]"] ;
139 -> 140 ;
141 [label="X[0] <= 7.5\ngini = 0.889\nsamples = 9\nvalue = [0, 0, 0 ..., 0, 0, 0]"] ;
139 -> 141 ;
142 [label="gini = 0.0\nsamples = 1\nvalue = [0, 0, 0 ..., 0, 0, 0]"] ;
141 -> 142 ;
143 [label="X[0] <= 8.5\ngini = 0.875\nsamples = 8\nvalue = [0, 0, 0 ..., 0, 0, 0]"] ;
141 -> 143 ;
144 [label="gini = 0.0\nsamples = 1\nvalue = [0, 0, 0 ..., 0, 0, 0]"] ;
143 -> 144 ;
145 [label="X[0] <= 9.5\ngini = 0.857\nsamples = 7\nvalue = [0, 0, 0 ..., 0, 0, 0]"] ;
143 -> 145 ;
146 [label="gini = 0.0\nsamples = 1\nvalue = [0, 0, 0 ..., 0, 0, 0]"] ;
145 -> 146 ;
147 [label="X[0] <= 10.5\ngini = 0.833\nsamples = 6\nvalue = [0, 0, 0 ..., 0, 0, 0]"] ;
145 -> 147 ;
148 [label="gini = 0.0\nsamples = 1\nvalue = [0, 0, 0 ..., 0, 0, 0]"] ;
147 -> 148 ;
149 [label="X[0] <= 11.5\ngini = 0.8\nsamples = 5\nvalue = [0, 0, 0 ..., 0, 0, 0]"] ;
147 -> 149 ;
150 [label="gini = 0.0\nsamples = 1\nvalue = [0, 0, 0 ..., 0, 0, 0]"] ;
149 -> 150 ;
151 [label="X[0] <= 12.5\ngini = 0.75\nsamples = 4\nvalue = [0, 0, 0 ..., 0, 0, 0]"] ;
149 -> 151 ;
152 [label="gini = 0.0\nsamples = 1\nvalue = [0, 0, 0 ..., 0, 0, 0]"] ;
151 -> 152 ;
153 [label="X[0] <= 13.5\ngini = 0.667\nsamples = 3\nvalue = [0, 0, 0 ..., 0, 0, 0]"] ;
151 -> 153 ;
154 [label="gini = 0.0\nsamples = 1\nvalue = [0, 0, 0 ..., 0, 0, 0]"] ;
153 -> 154 ;
155 [label="X[0] <= 14.5\ngini = 0.5\nsamples = 2\nvalue = [0, 0, 0 ..., 0, 0, 0]"] ;
153 -> 155 ;
156 [label="gini = 0.0\nsamples = 1\nvalue = [0, 0, 0 ..., 0, 0, 0]"] ;
155 -> 156 ;
157 [label="gini = 0.0\nsamples = 1\nvalue = [0, 0, 0 ..., 0, 0, 0]"] ;
155 -> 157 ;
158 [label="X[0] <= 4.5\ngini = 0.979\nsamples = 48\nvalue = [0, 0, 0 ..., 0, 0, 0]"] ;
134 -> 158 ;
159 [label="X[2] <= 11.0\ngini = 0.75\nsamples = 4\nvalue = [0, 0, 0 ..., 0, 0, 0]"] ;
158 -> 159 ;
160 [label="gini = 0.0\nsamples = 1\nvalue = [0, 0, 0 ..., 0, 0, 0]"] ;
159 -> 160 ;
161 [label="X[2] <= 15.0\ngini = 0.667\nsamples = 3\nvalue = [0, 0, 0 ..., 0, 0, 0]"] ;
159 -> 161 ;
162 [label="gini = 0.0\nsamples = 1\nvalue = [0, 0, 0 ..., 0, 0, 0]"] ;
161 -> 162 ;
163 [label="X[2] <= 19.0\ngini = 0.5\nsamples = 2\nvalue = [0, 0, 0 ..., 0, 0, 0]"] ;
161 -> 163 ;
164 [label="gini = 0.0\nsamples = 1\nvalue = [0, 0, 0 ..., 0, 0, 0]"] ;
163 -> 164 ;
165 [label="gini = 0.0\nsamples = 1\nvalue = [0, 0, 0 ..., 0, 0, 0]"] ;
163 -> 165 ;
166 [label="X[2] <= 11.0\ngini = 0.977\nsamples = 44\nvalue = [0, 0, 0 ..., 0, 0, 0]"] ;
158 -> 166 ;
167 [label="X[0] <= 5.5\ngini = 0.909\nsamples = 11\nvalue = [0, 0, 0 ..., 0, 0, 0]"] ;
166 -> 167 ;
168 [label="gini = 0.0\nsamples = 1\nvalue = [0, 0, 0 ..., 0, 0, 0]"] ;
167 -> 168 ;
169 [label="X[0] <= 6.5\ngini = 0.9\nsamples = 10\nvalue = [0, 0, 0 ..., 0, 0, 0]"] ;
167 -> 169 ;
170 [label="gini = 0.0\nsamples = 1\nvalue = [0, 0, 0 ..., 0, 0, 0]"] ;
169 -> 170 ;
171 [label="X[0] <= 7.5\ngini = 0.889\nsamples = 9\nvalue = [0, 0, 0 ..., 0, 0, 0]"] ;
169 -> 171 ;
172 [label="gini = 0.0\nsamples = 1\nvalue = [0, 0, 0 ..., 0, 0, 0]"] ;
171 -> 172 ;
173 [label="X[0] <= 8.5\ngini = 0.875\nsamples = 8\nvalue = [0, 0, 0 ..., 0, 0, 0]"] ;
171 -> 173 ;
174 [label="gini = 0.0\nsamples = 1\nvalue = [0, 0, 0 ..., 0, 0, 0]"] ;
173 -> 174 ;
175 [label="X[0] <= 9.5\ngini = 0.857\nsamples = 7\nvalue = [0, 0, 0 ..., 0, 0, 0]"] ;
173 -> 175 ;
176 [label="gini = 0.0\nsamples = 1\nvalue = [0, 0, 0 ..., 0, 0, 0]"] ;
175 -> 176 ;
177 [label="X[0] <= 10.5\ngini = 0.833\nsamples = 6\nvalue = [0, 0, 0 ..., 0, 0, 0]"] ;
175 -> 177 ;
178 [label="gini = 0.0\nsamples = 1\nvalue = [0, 0, 0 ..., 0, 0, 0]"] ;
177 -> 178 ;
179 [label="X[0] <= 11.5\ngini = 0.8\nsamples = 5\nvalue = [0, 0, 0 ..., 0, 0, 0]"] ;
177 -> 179 ;
180 [label="gini = 0.0\nsamples = 1\nvalue = [0, 0, 0 ..., 0, 0, 0]"] ;
179 -> 180 ;
181 [label="X[0] <= 12.5\ngini = 0.75\nsamples = 4\nvalue = [0, 0, 0 ..., 0, 0, 0]"] ;
179 -> 181 ;
182 [label="gini = 0.0\nsamples = 1\nvalue = [0, 0, 0 ..., 0, 0, 0]"] ;
181 -> 182 ;
183 [label="X[0] <= 13.5\ngini = 0.667\nsamples = 3\nvalue = [0, 0, 0 ..., 0, 0, 0]"] ;
181 -> 183 ;
184 [label="gini = 0.0\nsamples = 1\nvalue = [0, 0, 0 ..., 0, 0, 0]"] ;
183 -> 184 ;
185 [label="X[0] <= 14.5\ngini = 0.5\nsamples = 2\nvalue = [0, 0, 0 ..., 0, 0, 0]"] ;
183 -> 185 ;
186 [label="gini = 0.0\nsamples = 1\nvalue = [0, 0, 0 ..., 0, 0, 0]"] ;
185 -> 186 ;
187 [label="gini = 0.0\nsamples = 1\nvalue = [0, 0, 0 ..., 0, 0, 0]"] ;
185 -> 187 ;
188 [label="X[0] <= 5.5\ngini = 0.97\nsamples = 33\nvalue = [0, 0, 0 ..., 0, 0, 0]"] ;
166 -> 188 ;
189 [label="X[2] <= 15.0\ngini = 0.667\nsamples = 3\nvalue = [0, 0, 0 ..., 0, 0, 0]"] ;
188 -> 189 ;
190 [label="gini = 0.0\nsamples = 1\nvalue = [0, 0, 0 ..., 0, 0, 0]"] ;
189 -> 190 ;
191 [label="X[2] <= 19.0\ngini = 0.5\nsamples = 2\nvalue = [0, 0, 0 ..., 0, 0, 0]"] ;
189 -> 191 ;
192 [label="gini = 0.0\nsamples = 1\nvalue = [0, 0, 0 ..., 0, 0, 0]"] ;
191 -> 192 ;
193 [label="gini = 0.0\nsamples = 1\nvalue = [0, 0, 0 ..., 0, 0, 0]"] ;
191 -> 193 ;
194 [label="X[0] <= 6.5\ngini = 0.967\nsamples = 30\nvalue = [0, 0, 0 ..., 0, 0, 0]"] ;
188 -> 194 ;
195 [label="X[2] <= 15.0\ngini = 0.667\nsamples = 3\nvalue = [0, 0, 0 ..., 0, 0, 0]"] ;
194 -> 195 ;
196 [label="gini = 0.0\nsamples = 1\nvalue = [0, 0, 0 ..., 0, 0, 0]"] ;
195 -> 196 ;
197 [label="X[2] <= 19.0\ngini = 0.5\nsamples = 2\nvalue = [0, 0, 0 ..., 0, 0, 0]"] ;
195 -> 197 ;
198 [label="gini = 0.0\nsamples = 1\nvalue = [0, 0, 0 ..., 0, 0, 0]"] ;
197 -> 198 ;
199 [label="gini = 0.0\nsamples = 1\nvalue = [0, 0, 0 ..., 0, 0, 0]"] ;
197 -> 199 ;
200 [label="X[2] <= 15.0\ngini = 0.963\nsamples = 27\nvalue = [0, 0, 0 ..., 0, 0, 0]"] ;
194 -> 200 ;
201 [label="X[0] <= 7.5\ngini = 0.889\nsamples = 9\nvalue = [0, 0, 0 ..., 0, 0, 0]"] ;
200 -> 201 ;
202 [label="gini = 0.0\nsamples = 1\nvalue = [0, 0, 0 ..., 0, 0, 0]"] ;
201 -> 202 ;
203 [label="X[0] <= 8.5\ngini = 0.875\nsamples = 8\nvalue = [0, 0, 0 ..., 0, 0, 0]"] ;
201 -> 203 ;
204 [label="gini = 0.0\nsamples = 1\nvalue = [0, 0, 0 ..., 0, 0, 0]"] ;
203 -> 204 ;
205 [label="X[0] <= 9.5\ngini = 0.857\nsamples = 7\nvalue = [0, 0, 0 ..., 0, 0, 0]"] ;
203 -> 205 ;
206 [label="gini = 0.0\nsamples = 1\nvalue = [0, 0, 0 ..., 0, 0, 0]"] ;
205 -> 206 ;
207 [label="X[0] <= 10.5\ngini = 0.833\nsamples = 6\nvalue = [0, 0, 0 ..., 0, 0, 0]"] ;
205 -> 207 ;
208 [label="gini = 0.0\nsamples = 1\nvalue = [0, 0, 0 ..., 0, 0, 0]"] ;
207 -> 208 ;
209 [label="X[0] <= 11.5\ngini = 0.8\nsamples = 5\nvalue = [0, 0, 0 ..., 0, 0, 0]"] ;
207 -> 209 ;
210 [label="gini = 0.0\nsamples = 1\nvalue = [0, 0, 0 ..., 0, 0, 0]"] ;
209 -> 210 ;
211 [label="X[0] <= 12.5\ngini = 0.75\nsamples = 4\nvalue = [0, 0, 0 ..., 0, 0, 0]"] ;
209 -> 211 ;
212 [label="gini = 0.0\nsamples = 1\nvalue = [0, 0, 0 ..., 0, 0, 0]"] ;
211 -> 212 ;
213 [label="X[0] <= 13.5\ngini = 0.667\nsamples = 3\nvalue = [0, 0, 0 ..., 0, 0, 0]"] ;
211 -> 213 ;
214 [label="gini = 0.0\nsamples = 1\nvalue = [0, 0, 0 ..., 0, 0, 0]"] ;
213 -> 214 ;
215 [label="X[0] <= 14.5\ngini = 0.5\nsamples = 2\nvalue = [0, 0, 0 ..., 0, 0, 0]"] ;
213 -> 215 ;
216 [label="gini = 0.0\nsamples = 1\nvalue = [0, 0, 0 ..., 0, 0, 0]"] ;
215 -> 216 ;
217 [label="gini = 0.0\nsamples = 1\nvalue = [0, 0, 0 ..., 0, 0, 0]"] ;
215 -> 217 ;
218 [label="X[0] <= 7.5\ngini = 0.944\nsamples = 18\nvalue = [0, 0, 0 ..., 0, 0, 0]"] ;
200 -> 218 ;
219 [label="X[2] <= 19.0\ngini = 0.5\nsamples = 2\nvalue = [0, 0, 0 ..., 0, 0, 0]"] ;
218 -> 219 ;
220 [label="gini = 0.0\nsamples = 1\nvalue = [0, 0, 0 ..., 0, 0, 0]"] ;
219 -> 220 ;
221 [label="gini = 0.0\nsamples = 1\nvalue = [0, 0, 0 ..., 0, 0, 0]"] ;
219 -> 221 ;
222 [label="X[0] <= 8.5\ngini = 0.938\nsamples = 16\nvalue = [0, 0, 0 ..., 0, 0, 0]"] ;
218 -> 222 ;
223 [label="X[2] <= 19.0\ngini = 0.5\nsamples = 2\nvalue = [0, 0, 0 ..., 0, 0, 0]"] ;
222 -> 223 ;
224 [label="gini = 0.0\nsamples = 1\nvalue = [0, 0, 0 ..., 0, 0, 0]"] ;
223 -> 224 ;
225 [label="gini = 0.0\nsamples = 1\nvalue = [0, 0, 0 ..., 0, 0, 0]"] ;
223 -> 225 ;
226 [label="X[2] <= 19.0\ngini = 0.929\nsamples = 14\nvalue = [0, 0, 0 ..., 0, 0, 0]"] ;
222 -> 226 ;
227 [label="X[0] <= 9.5\ngini = 0.857\nsamples = 7\nvalue = [0, 0, 0 ..., 0, 0, 0]"] ;
226 -> 227 ;
228 [label="gini = 0.0\nsamples = 1\nvalue = [0, 0, 0 ..., 0, 0, 0]"] ;
227 -> 228 ;
229 [label="X[0] <= 10.5\ngini = 0.833\nsamples = 6\nvalue = [0, 0, 0 ..., 0, 0, 0]"] ;
227 -> 229 ;
230 [label="gini = 0.0\nsamples = 1\nvalue = [0, 0, 0 ..., 0, 0, 0]"] ;
229 -> 230 ;
231 [label="X[0] <= 11.5\ngini = 0.8\nsamples = 5\nvalue = [0, 0, 0 ..., 0, 0, 0]"] ;
229 -> 231 ;
232 [label="gini = 0.0\nsamples = 1\nvalue = [0, 0, 0 ..., 0, 0, 0]"] ;
231 -> 232 ;
233 [label="X[0] <= 12.5\ngini = 0.75\nsamples = 4\nvalue = [0, 0, 0 ..., 0, 0, 0]"] ;
231 -> 233 ;
234 [label="gini = 0.0\nsamples = 1\nvalue = [0, 0, 0 ..., 0, 0, 0]"] ;
233 -> 234 ;
235 [label="X[0] <= 13.5\ngini = 0.667\nsamples = 3\nvalue = [0, 0, 0 ..., 0, 0, 0]"] ;
233 -> 235 ;
236 [label="gini = 0.0\nsamples = 1\nvalue = [0, 0, 0 ..., 0, 0, 0]"] ;
235 -> 236 ;
237 [label="X[0] <= 14.5\ngini = 0.5\nsamples = 2\nvalue = [0, 0, 0 ..., 0, 0, 0]"] ;
235 -> 237 ;
238 [label="gini = 0.0\nsamples = 1\nvalue = [0, 0, 0 ..., 0, 0, 0]"] ;
237 -> 238 ;
239 [label="gini = 0.0\nsamples = 1\nvalue = [0, 0, 0 ..., 0, 0, 0]"] ;
237 -> 239 ;
240 [label="X[0] <= 9.5\ngini = 0.857\nsamples = 7\nvalue = [0, 0, 0 ..., 0, 0, 0]"] ;
226 -> 240 ;
241 [label="gini = 0.0\nsamples = 1\nvalue = [0, 0, 0 ..., 0, 0, 0]"] ;
240 -> 241 ;
242 [label="X[0] <= 10.5\ngini = 0.833\nsamples = 6\nvalue = [0, 0, 0 ..., 0, 0, 0]"] ;
240 -> 242 ;
243 [label="gini = 0.0\nsamples = 1\nvalue = [0, 0, 0 ..., 0, 0, 0]"] ;
242 -> 243 ;
244 [label="X[0] <= 11.5\ngini = 0.8\nsamples = 5\nvalue = [0, 0, 0 ..., 0, 0, 0]"] ;
242 -> 244 ;
245 [label="gini = 0.0\nsamples = 1\nvalue = [0, 0, 0 ..., 0, 0, 0]"] ;
244 -> 245 ;
246 [label="X[0] <= 12.5\ngini = 0.75\nsamples = 4\nvalue = [0, 0, 0 ..., 0, 0, 0]"] ;
244 -> 246 ;
247 [label="gini = 0.0\nsamples = 1\nvalue = [0, 0, 0 ..., 0, 0, 0]"] ;
246 -> 247 ;
248 [label="X[0] <= 13.5\ngini = 0.667\nsamples = 3\nvalue = [0, 0, 0 ..., 0, 0, 0]"] ;
246 -> 248 ;
249 [label="gini = 0.0\nsamples = 1\nvalue = [0, 0, 0 ..., 0, 0, 0]"] ;
248 -> 249 ;
250 [label="X[0] <= 14.5\ngini = 0.5\nsamples = 2\nvalue = [0, 0, 0 ..., 0, 0, 0]"] ;
248 -> 250 ;
251 [label="gini = 0.0\nsamples = 1\nvalue = [0, 0, 0 ..., 0, 0, 0]"] ;
250 -> 251 ;
252 [label="gini = 0.0\nsamples = 1\nvalue = [0, 0, 0 ..., 0, 0, 0]"] ;
250 -> 252 ;
253 [label="X[1] <= 2.5\ngini = 0.998\nsamples = 490\nvalue = [0, 0, 0 ..., 0, 0, 0]"] ;
85 -> 253 ;
254 [label="X[0] <= 2.5\ngini = 0.986\nsamples = 70\nvalue = [0, 0, 0 ..., 0, 0, 0]"] ;
253 -> 254 ;
255 [label="X[2] <= 3.0\ngini = 0.8\nsamples = 5\nvalue = [0, 0, 0 ..., 0, 0, 0]"] ;
254 -> 255 ;
256 [label="gini = 0.0\nsamples = 1\nvalue = [0, 0, 0 ..., 0, 0, 0]"] ;
255 -> 256 ;
257 [label="X[2] <= 7.0\ngini = 0.75\nsamples = 4\nvalue = [0, 0, 0 ..., 0, 0, 0]"] ;
255 -> 257 ;
258 [label="gini = 0.0\nsamples = 1\nvalue = [0, 0, 0 ..., 0, 0, 0]"] ;
257 -> 258 ;
259 [label="X[2] <= 11.0\ngini = 0.667\nsamples = 3\nvalue = [0, 0, 0 ..., 0, 0, 0]"] ;
257 -> 259 ;
260 [label="gini = 0.0\nsamples = 1\nvalue = [0, 0, 0 ..., 0, 0, 0]"] ;
259 -> 260 ;
261 [label="X[2] <= 17.0\ngini = 0.5\nsamples = 2\nvalue = [0, 0, 0 ..., 0, 0, 0]"] ;
259 -> 261 ;
262 [label="gini = 0.0\nsamples = 1\nvalue = [0, 0, 0 ..., 0, 0, 0]"] ;
261 -> 262 ;
263 [label="gini = 0.0\nsamples = 1\nvalue = [0, 0, 0 ..., 0, 0, 0]"] ;
261 -> 263 ;
264 [label="X[2] <= 3.0\ngini = 0.985\nsamples = 65\nvalue = [0, 0, 0 ..., 0, 0, 0]"] ;
254 -> 264 ;
265 [label="X[0] <= 3.5\ngini = 0.923\nsamples = 13\nvalue = [0, 0, 0 ..., 0, 0, 0]"] ;
264 -> 265 ;
266 [label="gini = 0.0\nsamples = 1\nvalue = [0, 0, 0 ..., 0, 0, 0]"] ;
265 -> 266 ;
267 [label="X[0] <= 4.5\ngini = 0.917\nsamples = 12\nvalue = [0, 0, 0 ..., 0, 0, 0]"] ;
265 -> 267 ;
268 [label="gini = 0.0\nsamples = 1\nvalue = [0, 0, 0 ..., 0, 0, 0]"] ;
267 -> 268 ;
269 [label="X[0] <= 5.5\ngini = 0.909\nsamples = 11\nvalue = [0, 0, 0 ..., 0, 0, 0]"] ;
267 -> 269 ;
270 [label="gini = 0.0\nsamples = 1\nvalue = [0, 0, 0 ..., 0, 0, 0]"] ;
269 -> 270 ;
271 [label="X[0] <= 6.5\ngini = 0.9\nsamples = 10\nvalue = [0, 0, 0 ..., 0, 0, 0]"] ;
269 -> 271 ;
272 [label="gini = 0.0\nsamples = 1\nvalue = [0, 0, 0 ..., 0, 0, 0]"] ;
271 -> 272 ;
273 [label="X[0] <= 7.5\ngini = 0.889\nsamples = 9\nvalue = [0, 0, 0 ..., 0, 0, 0]"] ;
271 -> 273 ;
274 [label="gini = 0.0\nsamples = 1\nvalue = [0, 0, 0 ..., 0, 0, 0]"] ;
273 -> 274 ;
275 [label="X[0] <= 8.5\ngini = 0.875\nsamples = 8\nvalue = [0, 0, 0 ..., 0, 0, 0]"] ;
273 -> 275 ;
276 [label="gini = 0.0\nsamples = 1\nvalue = [0, 0, 0 ..., 0, 0, 0]"] ;
275 -> 276 ;
277 [label="X[0] <= 9.5\ngini = 0.857\nsamples = 7\nvalue = [0, 0, 0 ..., 0, 0, 0]"] ;
275 -> 277 ;
278 [label="gini = 0.0\nsamples = 1\nvalue = [0, 0, 0 ..., 0, 0, 0]"] ;
277 -> 278 ;
279 [label="X[0] <= 10.5\ngini = 0.833\nsamples = 6\nvalue = [0, 0, 0 ..., 0, 0, 0]"] ;
277 -> 279 ;
280 [label="gini = 0.0\nsamples = 1\nvalue = [0, 0, 0 ..., 0, 0, 0]"] ;
279 -> 280 ;
281 [label="X[0] <= 11.5\ngini = 0.8\nsamples = 5\nvalue = [0, 0, 0 ..., 0, 0, 0]"] ;
279 -> 281 ;
282 [label="gini = 0.0\nsamples = 1\nvalue = [0, 0, 0 ..., 0, 0, 0]"] ;
281 -> 282 ;
283 [label="X[0] <= 12.5\ngini = 0.75\nsamples = 4\nvalue = [0, 0, 0 ..., 0, 0, 0]"] ;
281 -> 283 ;
284 [label="gini = 0.0\nsamples = 1\nvalue = [0, 0, 0 ..., 0, 0, 0]"] ;
283 -> 284 ;
285 [label="X[0] <= 13.5\ngini = 0.667\nsamples = 3\nvalue = [0, 0, 0 ..., 0, 0, 0]"] ;
283 -> 285 ;
286 [label="gini = 0.0\nsamples = 1\nvalue = [0, 0, 0 ..., 0, 0, 0]"] ;
285 -> 286 ;
287 [label="X[0] <= 14.5\ngini = 0.5\nsamples = 2\nvalue = [0, 0, 0 ..., 0, 0, 0]"] ;
285 -> 287 ;
288 [label="gini = 0.0\nsamples = 1\nvalue = [0, 0, 0 ..., 0, 0, 0]"] ;
287 -> 288 ;
289 [label="gini = 0.0\nsamples = 1\nvalue = [0, 0, 0 ..., 0, 0, 0]"] ;
287 -> 289 ;
290 [label="X[0] <= 3.5\ngini = 0.981\nsamples = 52\nvalue = [0, 0, 0 ..., 0, 0, 0]"] ;
264 -> 290 ;
291 [label="X[2] <= 7.0\ngini = 0.75\nsamples = 4\nvalue = [0, 0, 0 ..., 0, 0, 0]"] ;
290 -> 291 ;
292 [label="gini = 0.0\nsamples = 1\nvalue = [0, 0, 0 ..., 0, 0, 0]"] ;
291 -> 292 ;
293 [label="X[2] <= 11.0\ngini = 0.667\nsamples = 3\nvalue = [0, 0, 0 ..., 0, 0, 0]"] ;
291 -> 293 ;
294 [label="gini = 0.0\nsamples = 1\nvalue = [0, 0, 0 ..., 0, 0, 0]"] ;
293 -> 294 ;
295 [label="X[2] <= 17.0\ngini = 0.5\nsamples = 2\nvalue = [0, 0, 0 ..., 0, 0, 0]"] ;
293 -> 295 ;
296 [label="gini = 0.0\nsamples = 1\nvalue = [0, 0, 0 ..., 0, 0, 0]"] ;
295 -> 296 ;
297 [label="gini = 0.0\nsamples = 1\nvalue = [0, 0, 0 ..., 0, 0, 0]"] ;
295 -> 297 ;
298 [label="X[2] <= 7.0\ngini = 0.979\nsamples = 48\nvalue = [0, 0, 0 ..., 0, 0, 0]"] ;
290 -> 298 ;
299 [label="X[0] <= 4.5\ngini = 0.917\nsamples = 12\nvalue = [0, 0, 0 ..., 0, 0, 0]"] ;
298 -> 299 ;
300 [label="gini = 0.0\nsamples = 1\nvalue = [0, 0, 0 ..., 0, 0, 0]"] ;
299 -> 300 ;
301 [label="X[0] <= 5.5\ngini = 0.909\nsamples = 11\nvalue = [0, 0, 0 ..., 0, 0, 0]"] ;
299 -> 301 ;
302 [label="gini = 0.0\nsamples = 1\nvalue = [0, 0, 0 ..., 0, 0, 0]"] ;
301 -> 302 ;
303 [label="X[0] <= 6.5\ngini = 0.9\nsamples = 10\nvalue = [0, 0, 0 ..., 0, 0, 0]"] ;
301 -> 303 ;
304 [label="gini = 0.0\nsamples = 1\nvalue = [0, 0, 0 ..., 0, 0, 0]"] ;
303 -> 304 ;
305 [label="X[0] <= 7.5\ngini = 0.889\nsamples = 9\nvalue = [0, 0, 0 ..., 0, 0, 0]"] ;
303 -> 305 ;
306 [label="gini = 0.0\nsamples = 1\nvalue = [0, 0, 0 ..., 0, 0, 0]"] ;
305 -> 306 ;
307 [label="X[0] <= 8.5\ngini = 0.875\nsamples = 8\nvalue = [0, 0, 0 ..., 0, 0, 0]"] ;
305 -> 307 ;
308 [label="gini = 0.0\nsamples = 1\nvalue = [0, 0, 0 ..., 0, 0, 0]"] ;
307 -> 308 ;
309 [label="X[0] <= 9.5\ngini = 0.857\nsamples = 7\nvalue = [0, 0, 0 ..., 0, 0, 0]"] ;
307 -> 309 ;
310 [label="gini = 0.0\nsamples = 1\nvalue = [0, 0, 0 ..., 0, 0, 0]"] ;
309 -> 310 ;
311 [label="X[0] <= 10.5\ngini = 0.833\nsamples = 6\nvalue = [0, 0, 0 ..., 0, 0, 0]"] ;
309 -> 311 ;
312 [label="gini = 0.0\nsamples = 1\nvalue = [0, 0, 0 ..., 0, 0, 0]"] ;
311 -> 312 ;
313 [label="X[0] <= 11.5\ngini = 0.8\nsamples = 5\nvalue = [0, 0, 0 ..., 0, 0, 0]"] ;
311 -> 313 ;
314 [label="gini = 0.0\nsamples = 1\nvalue = [0, 0, 0 ..., 0, 0, 0]"] ;
313 -> 314 ;
315 [label="X[0] <= 12.5\ngini = 0.75\nsamples = 4\nvalue = [0, 0, 0 ..., 0, 0, 0]"] ;
313 -> 315 ;
316 [label="gini = 0.0\nsamples = 1\nvalue = [0, 0, 0 ..., 0, 0, 0]"] ;
315 -> 316 ;
317 [label="X[0] <= 13.5\ngini = 0.667\nsamples = 3\nvalue = [0, 0, 0 ..., 0, 0, 0]"] ;
315 -> 317 ;
318 [label="gini = 0.0\nsamples = 1\nvalue = [0, 0, 0 ..., 0, 0, 0]"] ;
317 -> 318 ;
319 [label="X[0] <= 14.5\ngini = 0.5\nsamples = 2\nvalue = [0, 0, 0 ..., 0, 0, 0]"] ;
317 -> 319 ;
320 [label="gini = 0.0\nsamples = 1\nvalue = [0, 0, 0 ..., 0, 0, 0]"] ;
319 -> 320 ;
321 [label="gini = 0.0\nsamples = 1\nvalue = [0, 0, 0 ..., 0, 0, 0]"] ;
319 -> 321 ;
322 [label="X[2] <= 11.0\ngini = 0.972\nsamples = 36\nvalue = [0, 0, 0 ..., 0, 0, 0]"] ;
298 -> 322 ;
323 [label="X[0] <= 4.5\ngini = 0.917\nsamples = 12\nvalue = [0, 0, 0 ..., 0, 0, 0]"] ;
322 -> 323 ;
324 [label="gini = 0.0\nsamples = 1\nvalue = [0, 0, 0 ..., 0, 0, 0]"] ;
323 -> 324 ;
325 [label="X[0] <= 5.5\ngini = 0.909\nsamples = 11\nvalue = [0, 0, 0 ..., 0, 0, 0]"] ;
323 -> 325 ;
326 [label="gini = 0.0\nsamples = 1\nvalue = [0, 0, 0 ..., 0, 0, 0]"] ;
325 -> 326 ;
327 [label="X[0] <= 6.5\ngini = 0.9\nsamples = 10\nvalue = [0, 0, 0 ..., 0, 0, 0]"] ;
325 -> 327 ;
328 [label="gini = 0.0\nsamples = 1\nvalue = [0, 0, 0 ..., 0, 0, 0]"] ;
327 -> 328 ;
329 [label="X[0] <= 7.5\ngini = 0.889\nsamples = 9\nvalue = [0, 0, 0 ..., 0, 0, 0]"] ;
327 -> 329 ;
330 [label="gini = 0.0\nsamples = 1\nvalue = [0, 0, 0 ..., 0, 0, 0]"] ;
329 -> 330 ;
331 [label="X[0] <= 8.5\ngini = 0.875\nsamples = 8\nvalue = [0, 0, 0 ..., 0, 0, 0]"] ;
329 -> 331 ;
332 [label="gini = 0.0\nsamples = 1\nvalue = [0, 0, 0 ..., 0, 0, 0]"] ;
331 -> 332 ;
333 [label="X[0] <= 9.5\ngini = 0.857\nsamples = 7\nvalue = [0, 0, 0 ..., 0, 0, 0]"] ;
331 -> 333 ;
334 [label="gini = 0.0\nsamples = 1\nvalue = [0, 0, 0 ..., 0, 0, 0]"] ;
333 -> 334 ;
335 [label="X[0] <= 10.5\ngini = 0.833\nsamples = 6\nvalue = [0, 0, 0 ..., 0, 0, 0]"] ;
333 -> 335 ;
336 [label="gini = 0.0\nsamples = 1\nvalue = [0, 0, 0 ..., 0, 0, 0]"] ;
335 -> 336 ;
337 [label="X[0] <= 11.5\ngini = 0.8\nsamples = 5\nvalue = [0, 0, 0 ..., 0, 0, 0]"] ;
335 -> 337 ;
338 [label="gini = 0.0\nsamples = 1\nvalue = [0, 0, 0 ..., 0, 0, 0]"] ;
337 -> 338 ;
339 [label="X[0] <= 12.5\ngini = 0.75\nsamples = 4\nvalue = [0, 0, 0 ..., 0, 0, 0]"] ;
337 -> 339 ;
340 [label="gini = 0.0\nsamples = 1\nvalue = [0, 0, 0 ..., 0, 0, 0]"] ;
339 -> 340 ;
341 [label="X[0] <= 13.5\ngini = 0.667\nsamples = 3\nvalue = [0, 0, 0 ..., 0, 0, 0]"] ;
339 -> 341 ;
342 [label="gini = 0.0\nsamples = 1\nvalue = [0, 0, 0 ..., 0, 0, 0]"] ;
341 -> 342 ;
343 [label="X[0] <= 14.5\ngini = 0.5\nsamples = 2\nvalue = [0, 0, 0 ..., 0, 0, 0]"] ;
341 -> 343 ;
344 [label="gini = 0.0\nsamples = 1\nvalue = [0, 0, 0 ..., 0, 0, 0]"] ;
343 -> 344 ;
345 [label="gini = 0.0\nsamples = 1\nvalue = [0, 0, 0 ..., 0, 0, 0]"] ;
343 -> 345 ;
346 [label="X[0] <= 4.5\ngini = 0.958\nsamples = 24\nvalue = [0, 0, 0 ..., 0, 0, 0]"] ;
322 -> 346 ;
347 [label="X[2] <= 17.0\ngini = 0.5\nsamples = 2\nvalue = [0, 0, 0 ..., 0, 0, 0]"] ;
346 -> 347 ;
348 [label="gini = 0.0\nsamples = 1\nvalue = [0, 0, 0 ..., 0, 0, 0]"] ;
347 -> 348 ;
349 [label="gini = 0.0\nsamples = 1\nvalue = [0, 0, 0 ..., 0, 0, 0]"] ;
347 -> 349 ;
350 [label="X[2] <= 17.0\ngini = 0.955\nsamples = 22\nvalue = [0, 0, 0 ..., 0, 0, 0]"] ;
346 -> 350 ;
351 [label="X[0] <= 5.5\ngini = 0.909\nsamples = 11\nvalue = [0, 0, 0 ..., 0, 0, 0]"] ;
350 -> 351 ;
352 [label="gini = 0.0\nsamples = 1\nvalue = [0, 0, 0 ..., 0, 0, 0]"] ;
351 -> 352 ;
353 [label="X[0] <= 6.5\ngini = 0.9\nsamples = 10\nvalue = [0, 0, 0 ..., 0, 0, 0]"] ;
351 -> 353 ;
354 [label="gini = 0.0\nsamples = 1\nvalue = [0, 0, 0 ..., 0, 0, 0]"] ;
353 -> 354 ;
355 [label="X[0] <= 7.5\ngini = 0.889\nsamples = 9\nvalue = [0, 0, 0 ..., 0, 0, 0]"] ;
353 -> 355 ;
356 [label="gini = 0.0\nsamples = 1\nvalue = [0, 0, 0 ..., 0, 0, 0]"] ;
355 -> 356 ;
357 [label="X[0] <= 8.5\ngini = 0.875\nsamples = 8\nvalue = [0, 0, 0 ..., 0, 0, 0]"] ;
355 -> 357 ;
358 [label="gini = 0.0\nsamples = 1\nvalue = [0, 0, 0 ..., 0, 0, 0]"] ;
357 -> 358 ;
359 [label="X[0] <= 9.5\ngini = 0.857\nsamples = 7\nvalue = [0, 0, 0 ..., 0, 0, 0]"] ;
357 -> 359 ;
360 [label="gini = 0.0\nsamples = 1\nvalue = [0, 0, 0 ..., 0, 0, 0]"] ;
359 -> 360 ;
361 [label="X[0] <= 10.5\ngini = 0.833\nsamples = 6\nvalue = [0, 0, 0 ..., 0, 0, 0]"] ;
359 -> 361 ;
362 [label="gini = 0.0\nsamples = 1\nvalue = [0, 0, 0 ..., 0, 0, 0]"] ;
361 -> 362 ;
363 [label="X[0] <= 11.5\ngini = 0.8\nsamples = 5\nvalue = [0, 0, 0 ..., 0, 0, 0]"] ;
361 -> 363 ;
364 [label="gini = 0.0\nsamples = 1\nvalue = [0, 0, 0 ..., 0, 0, 0]"] ;
363 -> 364 ;
365 [label="X[0] <= 12.5\ngini = 0.75\nsamples = 4\nvalue = [0, 0, 0 ..., 0, 0, 0]"] ;
363 -> 365 ;
366 [label="gini = 0.0\nsamples = 1\nvalue = [0, 0, 0 ..., 0, 0, 0]"] ;
365 -> 366 ;
367 [label="X[0] <= 13.5\ngini = 0.667\nsamples = 3\nvalue = [0, 0, 0 ..., 0, 0, 0]"] ;
365 -> 367 ;
368 [label="gini = 0.0\nsamples = 1\nvalue = [0, 0, 0 ..., 0, 0, 0]"] ;
367 -> 368 ;
369 [label="X[0] <= 14.5\ngini = 0.5\nsamples = 2\nvalue = [0, 0, 0 ..., 0, 0, 0]"] ;
367 -> 369 ;
370 [label="gini = 0.0\nsamples = 1\nvalue = [0, 0, 0 ..., 0, 0, 0]"] ;
369 -> 370 ;
371 [label="gini = 0.0\nsamples = 1\nvalue = [0, 0, 0 ..., 0, 0, 0]"] ;
369 -> 371 ;
372 [label="X[0] <= 5.5\ngini = 0.909\nsamples = 11\nvalue = [0, 0, 0 ..., 0, 0, 0]"] ;
350 -> 372 ;
373 [label="gini = 0.0\nsamples = 1\nvalue = [0, 0, 0 ..., 0, 0, 0]"] ;
372 -> 373 ;
374 [label="X[0] <= 6.5\ngini = 0.9\nsamples = 10\nvalue = [0, 0, 0 ..., 0, 0, 0]"] ;
372 -> 374 ;
375 [label="gini = 0.0\nsamples = 1\nvalue = [0, 0, 0 ..., 0, 0, 0]"] ;
374 -> 375 ;
376 [label="X[0] <= 7.5\ngini = 0.889\nsamples = 9\nvalue = [0, 0, 0 ..., 0, 0, 0]"] ;
374 -> 376 ;
377 [label="gini = 0.0\nsamples = 1\nvalue = [0, 0, 0 ..., 0, 0, 0]"] ;
376 -> 377 ;
378 [label="X[0] <= 8.5\ngini = 0.875\nsamples = 8\nvalue = [0, 0, 0 ..., 0, 0, 0]"] ;
376 -> 378 ;
379 [label="gini = 0.0\nsamples = 1\nvalue = [0, 0, 0 ..., 0, 0, 0]"] ;
378 -> 379 ;
380 [label="X[0] <= 9.5\ngini = 0.857\nsamples = 7\nvalue = [0, 0, 0 ..., 0, 0, 0]"] ;
378 -> 380 ;
381 [label="gini = 0.0\nsamples = 1\nvalue = [0, 0, 0 ..., 0, 0, 0]"] ;
380 -> 381 ;
382 [label="X[0] <= 10.5\ngini = 0.833\nsamples = 6\nvalue = [0, 0, 0 ..., 0, 0, 0]"] ;
380 -> 382 ;
383 [label="gini = 0.0\nsamples = 1\nvalue = [0, 0, 0 ..., 0, 0, 0]"] ;
382 -> 383 ;
384 [label="X[0] <= 11.5\ngini = 0.8\nsamples = 5\nvalue = [0, 0, 0 ..., 0, 0, 0]"] ;
382 -> 384 ;
385 [label="gini = 0.0\nsamples = 1\nvalue = [0, 0, 0 ..., 0, 0, 0]"] ;
384 -> 385 ;
386 [label="X[0] <= 12.5\ngini = 0.75\nsamples = 4\nvalue = [0, 0, 0 ..., 0, 0, 0]"] ;
384 -> 386 ;
387 [label="gini = 0.0\nsamples = 1\nvalue = [0, 0, 0 ..., 0, 0, 0]"] ;
386 -> 387 ;
388 [label="X[0] <= 13.5\ngini = 0.667\nsamples = 3\nvalue = [0, 0, 0 ..., 0, 0, 0]"] ;
386 -> 388 ;
389 [label="gini = 0.0\nsamples = 1\nvalue = [0, 0, 0 ..., 0, 0, 0]"] ;
388 -> 389 ;
390 [label="X[0] <= 14.5\ngini = 0.5\nsamples = 2\nvalue = [0, 0, 0 ..., 0, 0, 0]"] ;
388 -> 390 ;
391 [label="gini = 0.0\nsamples = 1\nvalue = [0, 0, 0 ..., 0, 0, 0]"] ;
390 -> 391 ;
392 [label="gini = 0.0\nsamples = 1\nvalue = [0, 0, 0 ..., 0, 0, 0]"] ;
390 -> 392 ;
393 [label="X[0] <= 2.5\ngini = 0.998\nsamples = 420\nvalue = [0, 0, 0 ..., 0, 0, 0]"] ;
253 -> 393 ;
394 [label="X[1] <= 3.5\ngini = 0.967\nsamples = 30\nvalue = [0, 0, 0 ..., 0, 0, 0]"] ;
393 -> 394 ;
395 [label="X[2] <= 3.0\ngini = 0.833\nsamples = 6\nvalue = [0, 0, 0 ..., 0, 0, 0]"] ;
394 -> 395 ;
396 [label="gini = 0.0\nsamples = 1\nvalue = [0, 0, 0 ..., 0, 0, 0]"] ;
395 -> 396 ;
397 [label="X[2] <= 7.0\ngini = 0.8\nsamples = 5\nvalue = [0, 0, 0 ..., 0, 0, 0]"] ;
395 -> 397 ;
398 [label="gini = 0.0\nsamples = 1\nvalue = [0, 0, 0 ..., 0, 0, 0]"] ;
397 -> 398 ;
399 [label="X[2] <= 11.0\ngini = 0.75\nsamples = 4\nvalue = [0, 0, 0 ..., 0, 0, 0]"] ;
397 -> 399 ;
400 [label="gini = 0.0\nsamples = 1\nvalue = [0, 0, 0 ..., 0, 0, 0]"] ;
399 -> 400 ;
401 [label="X[2] <= 15.0\ngini = 0.667\nsamples = 3\nvalue = [0, 0, 0 ..., 0, 0, 0]"] ;
399 -> 401 ;
402 [label="gini = 0.0\nsamples = 1\nvalue = [0, 0, 0 ..., 0, 0, 0]"] ;
401 -> 402 ;
403 [label="X[2] <= 19.0\ngini = 0.5\nsamples = 2\nvalue = [0, 0, 0 ..., 0, 0, 0]"] ;
401 -> 403 ;
404 [label="gini = 0.0\nsamples = 1\nvalue = [0, 0, 0 ..., 0, 0, 0]"] ;
403 -> 404 ;
405 [label="gini = 0.0\nsamples = 1\nvalue = [0, 0, 0 ..., 0, 0, 0]"] ;
403 -> 405 ;
406 [label="X[1] <= 4.5\ngini = 0.958\nsamples = 24\nvalue = [0, 0, 0 ..., 0, 0, 0]"] ;
394 -> 406 ;
407 [label="X[2] <= 3.0\ngini = 0.833\nsamples = 6\nvalue = [0, 0, 0 ..., 0, 0, 0]"] ;
406 -> 407 ;
408 [label="gini = 0.0\nsamples = 1\nvalue = [0, 0, 0 ..., 0, 0, 0]"] ;
407 -> 408 ;
409 [label="X[2] <= 7.0\ngini = 0.8\nsamples = 5\nvalue = [0, 0, 0 ..., 0, 0, 0]"] ;
407 -> 409 ;
410 [label="gini = 0.0\nsamples = 1\nvalue = [0, 0, 0 ..., 0, 0, 0]"] ;
409 -> 410 ;
411 [label="X[2] <= 11.0\ngini = 0.75\nsamples = 4\nvalue = [0, 0, 0 ..., 0, 0, 0]"] ;
409 -> 411 ;
412 [label="gini = 0.0\nsamples = 1\nvalue = [0, 0, 0 ..., 0, 0, 0]"] ;
411 -> 412 ;
413 [label="X[2] <= 15.0\ngini = 0.667\nsamples = 3\nvalue = [0, 0, 0 ..., 0, 0, 0]"] ;
411 -> 413 ;
414 [label="gini = 0.0\nsamples = 1\nvalue = [0, 0, 0 ..., 0, 0, 0]"] ;
413 -> 414 ;
415 [label="X[2] <= 19.0\ngini = 0.5\nsamples = 2\nvalue = [0, 0, 0 ..., 0, 0, 0]"] ;
413 -> 415 ;
416 [label="gini = 0.0\nsamples = 1\nvalue = [0, 0, 0 ..., 0, 0, 0]"] ;
415 -> 416 ;
417 [label="gini = 0.0\nsamples = 1\nvalue = [0, 0, 0 ..., 0, 0, 0]"] ;
415 -> 417 ;
418 [label="X[1] <= 5.5\ngini = 0.944\nsamples = 18\nvalue = [0, 0, 0 ..., 0, 0, 0]"] ;
406 -> 418 ;
419 [label="X[2] <= 3.0\ngini = 0.833\nsamples = 6\nvalue = [0, 0, 0 ..., 0, 0, 0]"] ;
418 -> 419 ;
420 [label="gini = 0.0\nsamples = 1\nvalue = [0, 0, 0 ..., 0, 0, 0]"] ;
419 -> 420 ;
421 [label="X[2] <= 7.0\ngini = 0.8\nsamples = 5\nvalue = [0, 0, 0 ..., 0, 0, 0]"] ;
419 -> 421 ;
422 [label="gini = 0.0\nsamples = 1\nvalue = [0, 0, 0 ..., 0, 0, 0]"] ;
421 -> 422 ;
423 [label="X[2] <= 11.0\ngini = 0.75\nsamples = 4\nvalue = [0, 0, 0 ..., 0, 0, 0]"] ;
421 -> 423 ;
424 [label="gini = 0.0\nsamples = 1\nvalue = [0, 0, 0 ..., 0, 0, 0]"] ;
423 -> 424 ;
425 [label="X[2] <= 15.0\ngini = 0.667\nsamples = 3\nvalue = [0, 0, 0 ..., 0, 0, 0]"] ;
423 -> 425 ;
426 [label="gini = 0.0\nsamples = 1\nvalue = [0, 0, 0 ..., 0, 0, 0]"] ;
425 -> 426 ;
427 [label="X[2] <= 19.0\ngini = 0.5\nsamples = 2\nvalue = [0, 0, 0 ..., 0, 0, 0]"] ;
425 -> 427 ;
428 [label="gini = 0.0\nsamples = 1\nvalue = [0, 0, 0 ..., 0, 0, 0]"] ;
427 -> 428 ;
429 [label="gini = 0.0\nsamples = 1\nvalue = [0, 0, 0 ..., 0, 0, 0]"] ;
427 -> 429 ;
430 [label="X[1] <= 6.5\ngini = 0.917\nsamples = 12\nvalue = [0, 0, 0 ..., 0, 0, 0]"] ;
418 -> 430 ;
431 [label="X[2] <= 3.0\ngini = 0.833\nsamples = 6\nvalue = [0, 0, 0 ..., 0, 0, 0]"] ;
430 -> 431 ;
432 [label="gini = 0.0\nsamples = 1\nvalue = [0, 0, 0 ..., 0, 0, 0]"] ;
431 -> 432 ;
433 [label="X[2] <= 7.0\ngini = 0.8\nsamples = 5\nvalue = [0, 0, 0 ..., 0, 0, 0]"] ;
431 -> 433 ;
434 [label="gini = 0.0\nsamples = 1\nvalue = [0, 0, 0 ..., 0, 0, 0]"] ;
433 -> 434 ;
435 [label="X[2] <= 11.0\ngini = 0.75\nsamples = 4\nvalue = [0, 0, 0 ..., 0, 0, 0]"] ;
433 -> 435 ;
436 [label="gini = 0.0\nsamples = 1\nvalue = [0, 0, 0 ..., 0, 0, 0]"] ;
435 -> 436 ;
437 [label="X[2] <= 15.0\ngini = 0.667\nsamples = 3\nvalue = [0, 0, 0 ..., 0, 0, 0]"] ;
435 -> 437 ;
438 [label="gini = 0.0\nsamples = 1\nvalue = [0, 0, 0 ..., 0, 0, 0]"] ;
437 -> 438 ;
439 [label="X[2] <= 19.0\ngini = 0.5\nsamples = 2\nvalue = [0, 0, 0 ..., 0, 0, 0]"] ;
437 -> 439 ;
440 [label="gini = 0.0\nsamples = 1\nvalue = [0, 0, 0 ..., 0, 0, 0]"] ;
439 -> 440 ;
441 [label="gini = 0.0\nsamples = 1\nvalue = [0, 0, 0 ..., 0, 0, 0]"] ;
439 -> 441 ;
442 [label="X[2] <= 3.0\ngini = 0.833\nsamples = 6\nvalue = [0, 0, 0 ..., 0, 0, 0]"] ;
430 -> 442 ;
443 [label="gini = 0.0\nsamples = 1\nvalue = [0, 0, 0 ..., 0, 0, 0]"] ;
442 -> 443 ;
444 [label="X[2] <= 7.0\ngini = 0.8\nsamples = 5\nvalue = [0, 0, 0 ..., 0, 0, 0]"] ;
442 -> 444 ;
445 [label="gini = 0.0\nsamples = 1\nvalue = [0, 0, 0 ..., 0, 0, 0]"] ;
444 -> 445 ;
446 [label="X[2] <= 11.0\ngini = 0.75\nsamples = 4\nvalue = [0, 0, 0 ..., 0, 0, 0]"] ;
444 -> 446 ;
447 [label="gini = 0.0\nsamples = 1\nvalue = [0, 0, 0 ..., 0, 0, 0]"] ;
446 -> 447 ;
448 [label="X[2] <= 15.0\ngini = 0.667\nsamples = 3\nvalue = [0, 0, 0 ..., 0, 0, 0]"] ;
446 -> 448 ;
449 [label="gini = 0.0\nsamples = 1\nvalue = [0, 0, 0 ..., 0, 0, 0]"] ;
448 -> 449 ;
450 [label="X[2] <= 19.0\ngini = 0.5\nsamples = 2\nvalue = [0, 0, 0 ..., 0, 0, 0]"] ;
448 -> 450 ;
451 [label="gini = 0.0\nsamples = 1\nvalue = [0, 0, 0 ..., 0, 0, 0]"] ;
450 -> 451 ;
452 [label="gini = 0.0\nsamples = 1\nvalue = [0, 0, 0 ..., 0, 0, 0]"] ;
450 -> 452 ;
453 [label="X[2] <= 3.0\ngini = 0.997\nsamples = 390\nvalue = [0, 0, 0 ..., 0, 0, 0]"] ;
393 -> 453 ;
454 [label="X[1] <= 3.5\ngini = 0.985\nsamples = 65\nvalue = [0, 0, 0 ..., 0, 0, 0]"] ;
453 -> 454 ;
455 [label="X[0] <= 3.5\ngini = 0.923\nsamples = 13\nvalue = [0, 0, 0 ..., 0, 0, 0]"] ;
454 -> 455 ;
456 [label="gini = 0.0\nsamples = 1\nvalue = [0, 0, 0 ..., 0, 0, 0]"] ;
455 -> 456 ;
457 [label="X[0] <= 4.5\ngini = 0.917\nsamples = 12\nvalue = [0, 0, 0 ..., 0, 0, 0]"] ;
455 -> 457 ;
458 [label="gini = 0.0\nsamples = 1\nvalue = [0, 0, 0 ..., 0, 0, 0]"] ;
457 -> 458 ;
459 [label="X[0] <= 5.5\ngini = 0.909\nsamples = 11\nvalue = [0, 0, 0 ..., 0, 0, 0]"] ;
457 -> 459 ;
460 [label="gini = 0.0\nsamples = 1\nvalue = [0, 0, 0 ..., 0, 0, 0]"] ;
459 -> 460 ;
461 [label="X[0] <= 6.5\ngini = 0.9\nsamples = 10\nvalue = [0, 0, 0 ..., 0, 0, 0]"] ;
459 -> 461 ;
462 [label="gini = 0.0\nsamples = 1\nvalue = [0, 0, 0 ..., 0, 0, 0]"] ;
461 -> 462 ;
463 [label="X[0] <= 7.5\ngini = 0.889\nsamples = 9\nvalue = [0, 0, 0 ..., 0, 0, 0]"] ;
461 -> 463 ;
464 [label="gini = 0.0\nsamples = 1\nvalue = [0, 0, 0 ..., 0, 0, 0]"] ;
463 -> 464 ;
465 [label="X[0] <= 8.5\ngini = 0.875\nsamples = 8\nvalue = [0, 0, 0 ..., 0, 0, 0]"] ;
463 -> 465 ;
466 [label="gini = 0.0\nsamples = 1\nvalue = [0, 0, 0 ..., 0, 0, 0]"] ;
465 -> 466 ;
467 [label="X[0] <= 9.5\ngini = 0.857\nsamples = 7\nvalue = [0, 0, 0 ..., 0, 0, 0]"] ;
465 -> 467 ;
468 [label="gini = 0.0\nsamples = 1\nvalue = [0, 0, 0 ..., 0, 0, 0]"] ;
467 -> 468 ;
469 [label="X[0] <= 10.5\ngini = 0.833\nsamples = 6\nvalue = [0, 0, 0 ..., 0, 0, 0]"] ;
467 -> 469 ;
470 [label="gini = 0.0\nsamples = 1\nvalue = [0, 0, 0 ..., 0, 0, 0]"] ;
469 -> 470 ;
471 [label="X[0] <= 11.5\ngini = 0.8\nsamples = 5\nvalue = [0, 0, 0 ..., 0, 0, 0]"] ;
469 -> 471 ;
472 [label="gini = 0.0\nsamples = 1\nvalue = [0, 0, 0 ..., 0, 0, 0]"] ;
471 -> 472 ;
473 [label="X[0] <= 12.5\ngini = 0.75\nsamples = 4\nvalue = [0, 0, 0 ..., 0, 0, 0]"] ;
471 -> 473 ;
474 [label="gini = 0.0\nsamples = 1\nvalue = [0, 0, 0 ..., 0, 0, 0]"] ;
473 -> 474 ;
475 [label="X[0] <= 13.5\ngini = 0.667\nsamples = 3\nvalue = [0, 0, 0 ..., 0, 0, 0]"] ;
473 -> 475 ;
476 [label="gini = 0.0\nsamples = 1\nvalue = [0, 0, 0 ..., 0, 0, 0]"] ;
475 -> 476 ;
477 [label="X[0] <= 14.5\ngini = 0.5\nsamples = 2\nvalue = [0, 0, 0 ..., 0, 0, 0]"] ;
475 -> 477 ;
478 [label="gini = 0.0\nsamples = 1\nvalue = [0, 0, 0 ..., 0, 0, 0]"] ;
477 -> 478 ;
479 [label="gini = 0.0\nsamples = 1\nvalue = [0, 0, 0 ..., 0, 0, 0]"] ;
477 -> 479 ;
480 [label="X[1] <= 4.5\ngini = 0.981\nsamples = 52\nvalue = [0, 0, 0 ..., 0, 0, 0]"] ;
454 -> 480 ;
481 [label="X[0] <= 3.5\ngini = 0.923\nsamples = 13\nvalue = [0, 0, 0 ..., 0, 0, 0]"] ;
480 -> 481 ;
482 [label="gini = 0.0\nsamples = 1\nvalue = [0, 0, 0 ..., 0, 0, 0]"] ;
481 -> 482 ;
483 [label="X[0] <= 4.5\ngini = 0.917\nsamples = 12\nvalue = [0, 0, 0 ..., 0, 0, 0]"] ;
481 -> 483 ;
484 [label="gini = 0.0\nsamples = 1\nvalue = [0, 0, 0 ..., 0, 0, 0]"] ;
483 -> 484 ;
485 [label="X[0] <= 5.5\ngini = 0.909\nsamples = 11\nvalue = [0, 0, 0 ..., 0, 0, 0]"] ;
483 -> 485 ;
486 [label="gini = 0.0\nsamples = 1\nvalue = [0, 0, 0 ..., 0, 0, 0]"] ;
485 -> 486 ;
487 [label="X[0] <= 6.5\ngini = 0.9\nsamples = 10\nvalue = [0, 0, 0 ..., 0, 0, 0]"] ;
485 -> 487 ;
488 [label="gini = 0.0\nsamples = 1\nvalue = [0, 0, 0 ..., 0, 0, 0]"] ;
487 -> 488 ;
489 [label="X[0] <= 7.5\ngini = 0.889\nsamples = 9\nvalue = [0, 0, 0 ..., 0, 0, 0]"] ;
487 -> 489 ;
490 [label="gini = 0.0\nsamples = 1\nvalue = [0, 0, 0 ..., 0, 0, 0]"] ;
489 -> 490 ;
491 [label="X[0] <= 8.5\ngini = 0.875\nsamples = 8\nvalue = [0, 0, 0 ..., 0, 0, 0]"] ;
489 -> 491 ;
492 [label="gini = 0.0\nsamples = 1\nvalue = [0, 0, 0 ..., 0, 0, 0]"] ;
491 -> 492 ;
493 [label="X[0] <= 9.5\ngini = 0.857\nsamples = 7\nvalue = [0, 0, 0 ..., 0, 0, 0]"] ;
491 -> 493 ;
494 [label="gini = 0.0\nsamples = 1\nvalue = [0, 0, 0 ..., 0, 0, 0]"] ;
493 -> 494 ;
495 [label="X[0] <= 10.5\ngini = 0.833\nsamples = 6\nvalue = [0, 0, 0 ..., 0, 0, 0]"] ;
493 -> 495 ;
496 [label="gini = 0.0\nsamples = 1\nvalue = [0, 0, 0 ..., 0, 0, 0]"] ;
495 -> 496 ;
497 [label="X[0] <= 11.5\ngini = 0.8\nsamples = 5\nvalue = [0, 0, 0 ..., 0, 0, 0]"] ;
495 -> 497 ;
498 [label="gini = 0.0\nsamples = 1\nvalue = [0, 0, 0 ..., 0, 0, 0]"] ;
497 -> 498 ;
499 [label="X[0] <= 12.5\ngini = 0.75\nsamples = 4\nvalue = [0, 0, 0 ..., 0, 0, 0]"] ;
497 -> 499 ;
500 [label="gini = 0.0\nsamples = 1\nvalue = [0, 0, 0 ..., 0, 0, 0]"] ;
499 -> 500 ;
501 [label="X[0] <= 13.5\ngini = 0.667\nsamples = 3\nvalue = [0, 0, 0 ..., 0, 0, 0]"] ;
499 -> 501 ;
502 [label="gini = 0.0\nsamples = 1\nvalue = [0, 0, 0 ..., 0, 0, 0]"] ;
501 -> 502 ;
503 [label="X[0] <= 14.5\ngini = 0.5\nsamples = 2\nvalue = [0, 0, 0 ..., 0, 0, 0]"] ;
501 -> 503 ;
504 [label="gini = 0.0\nsamples = 1\nvalue = [0, 0, 0 ..., 0, 0, 0]"] ;
503 -> 504 ;
505 [label="gini = 0.0\nsamples = 1\nvalue = [0, 0, 0 ..., 0, 0, 0]"] ;
503 -> 505 ;
506 [label="X[1] <= 5.5\ngini = 0.974\nsamples = 39\nvalue = [0, 0, 0 ..., 0, 0, 0]"] ;
480 -> 506 ;
507 [label="X[0] <= 3.5\ngini = 0.923\nsamples = 13\nvalue = [0, 0, 0 ..., 0, 0, 0]"] ;
506 -> 507 ;
508 [label="gini = 0.0\nsamples = 1\nvalue = [0, 0, 0 ..., 0, 0, 0]"] ;
507 -> 508 ;
509 [label="X[0] <= 4.5\ngini = 0.917\nsamples = 12\nvalue = [0, 0, 0 ..., 0, 0, 0]"] ;
507 -> 509 ;
510 [label="gini = 0.0\nsamples = 1\nvalue = [0, 0, 0 ..., 0, 0, 0]"] ;
509 -> 510 ;
511 [label="X[0] <= 5.5\ngini = 0.909\nsamples = 11\nvalue = [0, 0, 0 ..., 0, 0, 0]"] ;
509 -> 511 ;
512 [label="gini = 0.0\nsamples = 1\nvalue = [0, 0, 0 ..., 0, 0, 0]"] ;
511 -> 512 ;
513 [label="X[0] <= 6.5\ngini = 0.9\nsamples = 10\nvalue = [0, 0, 0 ..., 0, 0, 0]"] ;
511 -> 513 ;
514 [label="gini = 0.0\nsamples = 1\nvalue = [0, 0, 0 ..., 0, 0, 0]"] ;
513 -> 514 ;
515 [label="X[0] <= 7.5\ngini = 0.889\nsamples = 9\nvalue = [0, 0, 0 ..., 0, 0, 0]"] ;
513 -> 515 ;
516 [label="gini = 0.0\nsamples = 1\nvalue = [0, 0, 0 ..., 0, 0, 0]"] ;
515 -> 516 ;
517 [label="X[0] <= 8.5\ngini = 0.875\nsamples = 8\nvalue = [0, 0, 0 ..., 0, 0, 0]"] ;
515 -> 517 ;
518 [label="gini = 0.0\nsamples = 1\nvalue = [0, 0, 0 ..., 0, 0, 0]"] ;
517 -> 518 ;
519 [label="X[0] <= 9.5\ngini = 0.857\nsamples = 7\nvalue = [0, 0, 0 ..., 0, 0, 0]"] ;
517 -> 519 ;
520 [label="gini = 0.0\nsamples = 1\nvalue = [0, 0, 0 ..., 0, 0, 0]"] ;
519 -> 520 ;
521 [label="X[0] <= 10.5\ngini = 0.833\nsamples = 6\nvalue = [0, 0, 0 ..., 0, 0, 0]"] ;
519 -> 521 ;
522 [label="gini = 0.0\nsamples = 1\nvalue = [0, 0, 0 ..., 0, 0, 0]"] ;
521 -> 522 ;
523 [label="X[0] <= 11.5\ngini = 0.8\nsamples = 5\nvalue = [0, 0, 0 ..., 0, 0, 0]"] ;
521 -> 523 ;
524 [label="gini = 0.0\nsamples = 1\nvalue = [0, 0, 0 ..., 0, 0, 0]"] ;
523 -> 524 ;
525 [label="X[0] <= 12.5\ngini = 0.75\nsamples = 4\nvalue = [0, 0, 0 ..., 0, 0, 0]"] ;
523 -> 525 ;
526 [label="gini = 0.0\nsamples = 1\nvalue = [0, 0, 0 ..., 0, 0, 0]"] ;
525 -> 526 ;
527 [label="X[0] <= 13.5\ngini = 0.667\nsamples = 3\nvalue = [0, 0, 0 ..., 0, 0, 0]"] ;
525 -> 527 ;
528 [label="gini = 0.0\nsamples = 1\nvalue = [0, 0, 0 ..., 0, 0, 0]"] ;
527 -> 528 ;
529 [label="X[0] <= 14.5\ngini = 0.5\nsamples = 2\nvalue = [0, 0, 0 ..., 0, 0, 0]"] ;
527 -> 529 ;
530 [label="gini = 0.0\nsamples = 1\nvalue = [0, 0, 0 ..., 0, 0, 0]"] ;
529 -> 530 ;
531 [label="gini = 0.0\nsamples = 1\nvalue = [0, 0, 0 ..., 0, 0, 0]"] ;
529 -> 531 ;
532 [label="X[1] <= 6.5\ngini = 0.962\nsamples = 26\nvalue = [0, 0, 0 ..., 0, 0, 0]"] ;
506 -> 532 ;
533 [label="X[0] <= 3.5\ngini = 0.923\nsamples = 13\nvalue = [0, 0, 0 ..., 0, 0, 0]"] ;
532 -> 533 ;
534 [label="gini = 0.0\nsamples = 1\nvalue = [0, 0, 0 ..., 0, 0, 0]"] ;
533 -> 534 ;
535 [label="X[0] <= 4.5\ngini = 0.917\nsamples = 12\nvalue = [0, 0, 0 ..., 0, 0, 0]"] ;
533 -> 535 ;
536 [label="gini = 0.0\nsamples = 1\nvalue = [0, 0, 0 ..., 0, 0, 0]"] ;
535 -> 536 ;
537 [label="X[0] <= 5.5\ngini = 0.909\nsamples = 11\nvalue = [0, 0, 0 ..., 0, 0, 0]"] ;
535 -> 537 ;
538 [label="gini = 0.0\nsamples = 1\nvalue = [0, 0, 0 ..., 0, 0, 0]"] ;
537 -> 538 ;
539 [label="X[0] <= 6.5\ngini = 0.9\nsamples = 10\nvalue = [0, 0, 0 ..., 0, 0, 0]"] ;
537 -> 539 ;
540 [label="gini = 0.0\nsamples = 1\nvalue = [0, 0, 0 ..., 0, 0, 0]"] ;
539 -> 540 ;
541 [label="X[0] <= 7.5\ngini = 0.889\nsamples = 9\nvalue = [0, 0, 0 ..., 0, 0, 0]"] ;
539 -> 541 ;
542 [label="gini = 0.0\nsamples = 1\nvalue = [0, 0, 0 ..., 0, 0, 0]"] ;
541 -> 542 ;
543 [label="X[0] <= 8.5\ngini = 0.875\nsamples = 8\nvalue = [0, 0, 0 ..., 0, 0, 0]"] ;
541 -> 543 ;
544 [label="gini = 0.0\nsamples = 1\nvalue = [0, 0, 0 ..., 0, 0, 0]"] ;
543 -> 544 ;
545 [label="X[0] <= 9.5\ngini = 0.857\nsamples = 7\nvalue = [0, 0, 0 ..., 0, 0, 0]"] ;
543 -> 545 ;
546 [label="gini = 0.0\nsamples = 1\nvalue = [0, 0, 0 ..., 0, 0, 0]"] ;
545 -> 546 ;
547 [label="X[0] <= 10.5\ngini = 0.833\nsamples = 6\nvalue = [0, 0, 0 ..., 0, 0, 0]"] ;
545 -> 547 ;
548 [label="gini = 0.0\nsamples = 1\nvalue = [0, 0, 0 ..., 0, 0, 0]"] ;
547 -> 548 ;
549 [label="X[0] <= 11.5\ngini = 0.8\nsamples = 5\nvalue = [0, 0, 0 ..., 0, 0, 0]"] ;
547 -> 549 ;
550 [label="gini = 0.0\nsamples = 1\nvalue = [0, 0, 0 ..., 0, 0, 0]"] ;
549 -> 550 ;
551 [label="X[0] <= 12.5\ngini = 0.75\nsamples = 4\nvalue = [0, 0, 0 ..., 0, 0, 0]"] ;
549 -> 551 ;
552 [label="gini = 0.0\nsamples = 1\nvalue = [0, 0, 0 ..., 0, 0, 0]"] ;
551 -> 552 ;
553 [label="X[0] <= 13.5\ngini = 0.667\nsamples = 3\nvalue = [0, 0, 0 ..., 0, 0, 0]"] ;
551 -> 553 ;
554 [label="gini = 0.0\nsamples = 1\nvalue = [0, 0, 0 ..., 0, 0, 0]"] ;
553 -> 554 ;
555 [label="X[0] <= 14.5\ngini = 0.5\nsamples = 2\nvalue = [0, 0, 0 ..., 0, 0, 0]"] ;
553 -> 555 ;
556 [label="gini = 0.0\nsamples = 1\nvalue = [0, 0, 0 ..., 0, 0, 0]"] ;
555 -> 556 ;
557 [label="gini = 0.0\nsamples = 1\nvalue = [0, 0, 0 ..., 0, 0, 0]"] ;
555 -> 557 ;
558 [label="X[0] <= 3.5\ngini = 0.923\nsamples = 13\nvalue = [0, 0, 0 ..., 0, 0, 0]"] ;
532 -> 558 ;
559 [label="gini = 0.0\nsamples = 1\nvalue = [0, 0, 0 ..., 0, 0, 0]"] ;
558 -> 559 ;
560 [label="X[0] <= 4.5\ngini = 0.917\nsamples = 12\nvalue = [0, 0, 0 ..., 0, 0, 0]"] ;
558 -> 560 ;
561 [label="gini = 0.0\nsamples = 1\nvalue = [0, 0, 0 ..., 0, 0, 0]"] ;
560 -> 561 ;
562 [label="X[0] <= 5.5\ngini = 0.909\nsamples = 11\nvalue = [0, 0, 0 ..., 0, 0, 0]"] ;
560 -> 562 ;
563 [label="gini = 0.0\nsamples = 1\nvalue = [0, 0, 0 ..., 0, 0, 0]"] ;
562 -> 563 ;
564 [label="X[0] <= 6.5\ngini = 0.9\nsamples = 10\nvalue = [0, 0, 0 ..., 0, 0, 0]"] ;
562 -> 564 ;
565 [label="gini = 0.0\nsamples = 1\nvalue = [0, 0, 0 ..., 0, 0, 0]"] ;
564 -> 565 ;
566 [label="X[0] <= 7.5\ngini = 0.889\nsamples = 9\nvalue = [0, 0, 0 ..., 0, 0, 0]"] ;
564 -> 566 ;
567 [label="gini = 0.0\nsamples = 1\nvalue = [0, 0, 0 ..., 0, 0, 0]"] ;
566 -> 567 ;
568 [label="X[0] <= 8.5\ngini = 0.875\nsamples = 8\nvalue = [0, 0, 0 ..., 0, 0, 0]"] ;
566 -> 568 ;
569 [label="gini = 0.0\nsamples = 1\nvalue = [0, 0, 0 ..., 0, 0, 0]"] ;
568 -> 569 ;
570 [label="X[0] <= 9.5\ngini = 0.857\nsamples = 7\nvalue = [0, 0, 0 ..., 0, 0, 0]"] ;
568 -> 570 ;
571 [label="gini = 0.0\nsamples = 1\nvalue = [0, 0, 0 ..., 0, 0, 0]"] ;
570 -> 571 ;
572 [label="X[0] <= 10.5\ngini = 0.833\nsamples = 6\nvalue = [0, 0, 0 ..., 0, 0, 0]"] ;
570 -> 572 ;
573 [label="gini = 0.0\nsamples = 1\nvalue = [0, 0, 0 ..., 0, 0, 0]"] ;
572 -> 573 ;
574 [label="X[0] <= 11.5\ngini = 0.8\nsamples = 5\nvalue = [0, 0, 0 ..., 0, 0, 0]"] ;
572 -> 574 ;
575 [label="gini = 0.0\nsamples = 1\nvalue = [0, 0, 0 ..., 0, 0, 0]"] ;
574 -> 575 ;
576 [label="X[0] <= 12.5\ngini = 0.75\nsamples = 4\nvalue = [0, 0, 0 ..., 0, 0, 0]"] ;
574 -> 576 ;
577 [label="gini = 0.0\nsamples = 1\nvalue = [0, 0, 0 ..., 0, 0, 0]"] ;
576 -> 577 ;
578 [label="X[0] <= 13.5\ngini = 0.667\nsamples = 3\nvalue = [0, 0, 0 ..., 0, 0, 0]"] ;
576 -> 578 ;
579 [label="gini = 0.0\nsamples = 1\nvalue = [0, 0, 0 ..., 0, 0, 0]"] ;
578 -> 579 ;
580 [label="X[0] <= 14.5\ngini = 0.5\nsamples = 2\nvalue = [0, 0, 0 ..., 0, 0, 0]"] ;
578 -> 580 ;
581 [label="gini = 0.0\nsamples = 1\nvalue = [0, 0, 0 ..., 0, 0, 0]"] ;
580 -> 581 ;
582 [label="gini = 0.0\nsamples = 1\nvalue = [0, 0, 0 ..., 0, 0, 0]"] ;
580 -> 582 ;
583 [label="X[2] <= 7.0\ngini = 0.997\nsamples = 325\nvalue = [0, 0, 0 ..., 0, 0, 0]"] ;
453 -> 583 ;
584 [label="X[0] <= 3.5\ngini = 0.985\nsamples = 65\nvalue = [0, 0, 0 ..., 0, 0, 0]"] ;
583 -> 584 ;
585 [label="X[1] <= 3.5\ngini = 0.8\nsamples = 5\nvalue = [0, 0, 0 ..., 0, 0, 0]"] ;
584 -> 585 ;
586 [label="gini = 0.0\nsamples = 1\nvalue = [0, 0, 0 ..., 0, 0, 0]"] ;
585 -> 586 ;
587 [label="X[1] <= 4.5\ngini = 0.75\nsamples = 4\nvalue = [0, 0, 0 ..., 0, 0, 0]"] ;
585 -> 587 ;
588 [label="gini = 0.0\nsamples = 1\nvalue = [0, 0, 0 ..., 0, 0, 0]"] ;
587 -> 588 ;
589 [label="X[1] <= 5.5\ngini = 0.667\nsamples = 3\nvalue = [0, 0, 0 ..., 0, 0, 0]"] ;
587 -> 589 ;
590 [label="gini = 0.0\nsamples = 1\nvalue = [0, 0, 0 ..., 0, 0, 0]"] ;
589 -> 590 ;
591 [label="X[1] <= 6.5\ngini = 0.5\nsamples = 2\nvalue = [0, 0, 0 ..., 0, 0, 0]"] ;
589 -> 591 ;
592 [label="gini = 0.0\nsamples = 1\nvalue = [0, 0, 0 ..., 0, 0, 0]"] ;
591 -> 592 ;
593 [label="gini = 0.0\nsamples = 1\nvalue = [0, 0, 0 ..., 0, 0, 0]"] ;
591 -> 593 ;
594 [label="X[0] <= 4.5\ngini = 0.983\nsamples = 60\nvalue = [0, 0, 0 ..., 0, 0, 0]"] ;
584 -> 594 ;
595 [label="X[1] <= 3.5\ngini = 0.8\nsamples = 5\nvalue = [0, 0, 0 ..., 0, 0, 0]"] ;
594 -> 595 ;
596 [label="gini = 0.0\nsamples = 1\nvalue = [0, 0, 0 ..., 0, 0, 0]"] ;
595 -> 596 ;
597 [label="X[1] <= 4.5\ngini = 0.75\nsamples = 4\nvalue = [0, 0, 0 ..., 0, 0, 0]"] ;
595 -> 597 ;
598 [label="gini = 0.0\nsamples = 1\nvalue = [0, 0, 0 ..., 0, 0, 0]"] ;
597 -> 598 ;
599 [label="X[1] <= 5.5\ngini = 0.667\nsamples = 3\nvalue = [0, 0, 0 ..., 0, 0, 0]"] ;
597 -> 599 ;
600 [label="gini = 0.0\nsamples = 1\nvalue = [0, 0, 0 ..., 0, 0, 0]"] ;
599 -> 600 ;
601 [label="X[1] <= 6.5\ngini = 0.5\nsamples = 2\nvalue = [0, 0, 0 ..., 0, 0, 0]"] ;
599 -> 601 ;
602 [label="gini = 0.0\nsamples = 1\nvalue = [0, 0, 0 ..., 0, 0, 0]"] ;
601 -> 602 ;
603 [label="gini = 0.0\nsamples = 1\nvalue = [0, 0, 0 ..., 0, 0, 0]"] ;
601 -> 603 ;
604 [label="X[0] <= 5.5\ngini = 0.982\nsamples = 55\nvalue = [0, 0, 0 ..., 0, 0, 0]"] ;
594 -> 604 ;
605 [label="X[1] <= 3.5\ngini = 0.8\nsamples = 5\nvalue = [0, 0, 0 ..., 0, 0, 0]"] ;
604 -> 605 ;
606 [label="gini = 0.0\nsamples = 1\nvalue = [0, 0, 0 ..., 0, 0, 0]"] ;
605 -> 606 ;
607 [label="X[1] <= 4.5\ngini = 0.75\nsamples = 4\nvalue = [0, 0, 0 ..., 0, 0, 0]"] ;
605 -> 607 ;
608 [label="gini = 0.0\nsamples = 1\nvalue = [0, 0, 0 ..., 0, 0, 0]"] ;
607 -> 608 ;
609 [label="X[1] <= 5.5\ngini = 0.667\nsamples = 3\nvalue = [0, 0, 0 ..., 0, 0, 0]"] ;
607 -> 609 ;
610 [label="gini = 0.0\nsamples = 1\nvalue = [0, 0, 0 ..., 0, 0, 0]"] ;
609 -> 610 ;
611 [label="X[1] <= 6.5\ngini = 0.5\nsamples = 2\nvalue = [0, 0, 0 ..., 0, 0, 0]"] ;
609 -> 611 ;
612 [label="gini = 0.0\nsamples = 1\nvalue = [0, 0, 0 ..., 0, 0, 0]"] ;
611 -> 612 ;
613 [label="gini = 0.0\nsamples = 1\nvalue = [0, 0, 0 ..., 0, 0, 0]"] ;
611 -> 613 ;
614 [label="X[0] <= 6.5\ngini = 0.98\nsamples = 50\nvalue = [0, 0, 0 ..., 0, 0, 0]"] ;
604 -> 614 ;
615 [label="X[1] <= 3.5\ngini = 0.8\nsamples = 5\nvalue = [0, 0, 0 ..., 0, 0, 0]"] ;
614 -> 615 ;
616 [label="gini = 0.0\nsamples = 1\nvalue = [0, 0, 0 ..., 0, 0, 0]"] ;
615 -> 616 ;
617 [label="X[1] <= 4.5\ngini = 0.75\nsamples = 4\nvalue = [0, 0, 0 ..., 0, 0, 0]"] ;
615 -> 617 ;
618 [label="gini = 0.0\nsamples = 1\nvalue = [0, 0, 0 ..., 0, 0, 0]"] ;
617 -> 618 ;
619 [label="X[1] <= 5.5\ngini = 0.667\nsamples = 3\nvalue = [0, 0, 0 ..., 0, 0, 0]"] ;
617 -> 619 ;
620 [label="gini = 0.0\nsamples = 1\nvalue = [0, 0, 0 ..., 0, 0, 0]"] ;
619 -> 620 ;
621 [label="X[1] <= 6.5\ngini = 0.5\nsamples = 2\nvalue = [0, 0, 0 ..., 0, 0, 0]"] ;
619 -> 621 ;
622 [label="gini = 0.0\nsamples = 1\nvalue = [0, 0, 0 ..., 0, 0, 0]"] ;
621 -> 622 ;
623 [label="gini = 0.0\nsamples = 1\nvalue = [0, 0, 0 ..., 0, 0, 0]"] ;
621 -> 623 ;
624 [label="X[0] <= 7.5\ngini = 0.978\nsamples = 45\nvalue = [0, 0, 0 ..., 0, 0, 0]"] ;
614 -> 624 ;
625 [label="X[1] <= 3.5\ngini = 0.8\nsamples = 5\nvalue = [0, 0, 0 ..., 0, 0, 0]"] ;
624 -> 625 ;
626 [label="gini = 0.0\nsamples = 1\nvalue = [0, 0, 0 ..., 0, 0, 0]"] ;
625 -> 626 ;
627 [label="X[1] <= 4.5\ngini = 0.75\nsamples = 4\nvalue = [0, 0, 0 ..., 0, 0, 0]"] ;
625 -> 627 ;
628 [label="gini = 0.0\nsamples = 1\nvalue = [0, 0, 0 ..., 0, 0, 0]"] ;
627 -> 628 ;
629 [label="X[1] <= 5.5\ngini = 0.667\nsamples = 3\nvalue = [0, 0, 0 ..., 0, 0, 0]"] ;
627 -> 629 ;
630 [label="gini = 0.0\nsamples = 1\nvalue = [0, 0, 0 ..., 0, 0, 0]"] ;
629 -> 630 ;
631 [label="X[1] <= 6.5\ngini = 0.5\nsamples = 2\nvalue = [0, 0, 0 ..., 0, 0, 0]"] ;
629 -> 631 ;
632 [label="gini = 0.0\nsamples = 1\nvalue = [0, 0, 0 ..., 0, 0, 0]"] ;
631 -> 632 ;
633 [label="gini = 0.0\nsamples = 1\nvalue = [0, 0, 0 ..., 0, 0, 0]"] ;
631 -> 633 ;
634 [label="X[0] <= 8.5\ngini = 0.975\nsamples = 40\nvalue = [0, 0, 0 ..., 0, 0, 0]"] ;
624 -> 634 ;
635 [label="X[1] <= 3.5\ngini = 0.8\nsamples = 5\nvalue = [0, 0, 0 ..., 0, 0, 0]"] ;
634 -> 635 ;
636 [label="gini = 0.0\nsamples = 1\nvalue = [0, 0, 0 ..., 0, 0, 0]"] ;
635 -> 636 ;
637 [label="X[1] <= 4.5\ngini = 0.75\nsamples = 4\nvalue = [0, 0, 0 ..., 0, 0, 0]"] ;
635 -> 637 ;
638 [label="gini = 0.0\nsamples = 1\nvalue = [0, 0, 0 ..., 0, 0, 0]"] ;
637 -> 638 ;
639 [label="X[1] <= 5.5\ngini = 0.667\nsamples = 3\nvalue = [0, 0, 0 ..., 0, 0, 0]"] ;
637 -> 639 ;
640 [label="gini = 0.0\nsamples = 1\nvalue = [0, 0, 0 ..., 0, 0, 0]"] ;
639 -> 640 ;
641 [label="X[1] <= 6.5\ngini = 0.5\nsamples = 2\nvalue = [0, 0, 0 ..., 0, 0, 0]"] ;
639 -> 641 ;
642 [label="gini = 0.0\nsamples = 1\nvalue = [0, 0, 0 ..., 0, 0, 0]"] ;
641 -> 642 ;
643 [label="gini = 0.0\nsamples = 1\nvalue = [0, 0, 0 ..., 0, 0, 0]"] ;
641 -> 643 ;
644 [label="X[1] <= 3.5\ngini = 0.971\nsamples = 35\nvalue = [0, 0, 0 ..., 0, 0, 0]"] ;
634 -> 644 ;
645 [label="X[0] <= 9.5\ngini = 0.857\nsamples = 7\nvalue = [0, 0, 0 ..., 0, 0, 0]"] ;
644 -> 645 ;
646 [label="gini = 0.0\nsamples = 1\nvalue = [0, 0, 0 ..., 0, 0, 0]"] ;
645 -> 646 ;
647 [label="X[0] <= 10.5\ngini = 0.833\nsamples = 6\nvalue = [0, 0, 0 ..., 0, 0, 0]"] ;
645 -> 647 ;
648 [label="gini = 0.0\nsamples = 1\nvalue = [0, 0, 0 ..., 0, 0, 0]"] ;
647 -> 648 ;
649 [label="X[0] <= 11.5\ngini = 0.8\nsamples = 5\nvalue = [0, 0, 0 ..., 0, 0, 0]"] ;
647 -> 649 ;
650 [label="gini = 0.0\nsamples = 1\nvalue = [0, 0, 0 ..., 0, 0, 0]"] ;
649 -> 650 ;
651 [label="X[0] <= 12.5\ngini = 0.75\nsamples = 4\nvalue = [0, 0, 0 ..., 0, 0, 0]"] ;
649 -> 651 ;
652 [label="gini = 0.0\nsamples = 1\nvalue = [0, 0, 0 ..., 0, 0, 0]"] ;
651 -> 652 ;
653 [label="X[0] <= 13.5\ngini = 0.667\nsamples = 3\nvalue = [0, 0, 0 ..., 0, 0, 0]"] ;
651 -> 653 ;
654 [label="gini = 0.0\nsamples = 1\nvalue = [0, 0, 0 ..., 0, 0, 0]"] ;
653 -> 654 ;
655 [label="X[0] <= 14.5\ngini = 0.5\nsamples = 2\nvalue = [0, 0, 0 ..., 0, 0, 0]"] ;
653 -> 655 ;
656 [label="gini = 0.0\nsamples = 1\nvalue = [0, 0, 0 ..., 0, 0, 0]"] ;
655 -> 656 ;
657 [label="gini = 0.0\nsamples = 1\nvalue = [0, 0, 0 ..., 0, 0, 0]"] ;
655 -> 657 ;
658 [label="X[1] <= 4.5\ngini = 0.964\nsamples = 28\nvalue = [0, 0, 0 ..., 0, 0, 0]"] ;
644 -> 658 ;
659 [label="X[0] <= 9.5\ngini = 0.857\nsamples = 7\nvalue = [0, 0, 0 ..., 0, 0, 0]"] ;
658 -> 659 ;
660 [label="gini = 0.0\nsamples = 1\nvalue = [0, 0, 0 ..., 0, 0, 0]"] ;
659 -> 660 ;
661 [label="X[0] <= 10.5\ngini = 0.833\nsamples = 6\nvalue = [0, 0, 0 ..., 0, 0, 0]"] ;
659 -> 661 ;
662 [label="gini = 0.0\nsamples = 1\nvalue = [0, 0, 0 ..., 0, 0, 0]"] ;
661 -> 662 ;
663 [label="X[0] <= 11.5\ngini = 0.8\nsamples = 5\nvalue = [0, 0, 0 ..., 0, 0, 0]"] ;
661 -> 663 ;
664 [label="gini = 0.0\nsamples = 1\nvalue = [0, 0, 0 ..., 0, 0, 0]"] ;
663 -> 664 ;
665 [label="X[0] <= 12.5\ngini = 0.75\nsamples = 4\nvalue = [0, 0, 0 ..., 0, 0, 0]"] ;
663 -> 665 ;
666 [label="gini = 0.0\nsamples = 1\nvalue = [0, 0, 0 ..., 0, 0, 0]"] ;
665 -> 666 ;
667 [label="X[0] <= 13.5\ngini = 0.667\nsamples = 3\nvalue = [0, 0, 0 ..., 0, 0, 0]"] ;
665 -> 667 ;
668 [label="gini = 0.0\nsamples = 1\nvalue = [0, 0, 0 ..., 0, 0, 0]"] ;
667 -> 668 ;
669 [label="X[0] <= 14.5\ngini = 0.5\nsamples = 2\nvalue = [0, 0, 0 ..., 0, 0, 0]"] ;
667 -> 669 ;
670 [label="gini = 0.0\nsamples = 1\nvalue = [0, 0, 0 ..., 0, 0, 0]"] ;
669 -> 670 ;
671 [label="gini = 0.0\nsamples = 1\nvalue = [0, 0, 0 ..., 0, 0, 0]"] ;
669 -> 671 ;
672 [label="X[0] <= 9.5\ngini = 0.952\nsamples = 21\nvalue = [0, 0, 0 ..., 0, 0, 0]"] ;
658 -> 672 ;
673 [label="X[1] <= 5.5\ngini = 0.667\nsamples = 3\nvalue = [0, 0, 0 ..., 0, 0, 0]"] ;
672 -> 673 ;
674 [label="gini = 0.0\nsamples = 1\nvalue = [0, 0, 0 ..., 0, 0, 0]"] ;
673 -> 674 ;
675 [label="X[1] <= 6.5\ngini = 0.5\nsamples = 2\nvalue = [0, 0, 0 ..., 0, 0, 0]"] ;
673 -> 675 ;
676 [label="gini = 0.0\nsamples = 1\nvalue = [0, 0, 0 ..., 0, 0, 0]"] ;
675 -> 676 ;
677 [label="gini = 0.0\nsamples = 1\nvalue = [0, 0, 0 ..., 0, 0, 0]"] ;
675 -> 677 ;
678 [label="X[0] <= 10.5\ngini = 0.944\nsamples = 18\nvalue = [0, 0, 0 ..., 0, 0, 0]"] ;
672 -> 678 ;
679 [label="X[1] <= 5.5\ngini = 0.667\nsamples = 3\nvalue = [0, 0, 0 ..., 0, 0, 0]"] ;
678 -> 679 ;
680 [label="gini = 0.0\nsamples = 1\nvalue = [0, 0, 0 ..., 0, 0, 0]"] ;
679 -> 680 ;
681 [label="X[1] <= 6.5\ngini = 0.5\nsamples = 2\nvalue = [0, 0, 0 ..., 0, 0, 0]"] ;
679 -> 681 ;
682 [label="gini = 0.0\nsamples = 1\nvalue = [0, 0, 0 ..., 0, 0, 0]"] ;
681 -> 682 ;
683 [label="gini = 0.0\nsamples = 1\nvalue = [0, 0, 0 ..., 0, 0, 0]"] ;
681 -> 683 ;
684 [label="X[1] <= 5.5\ngini = 0.933\nsamples = 15\nvalue = [0, 0, 0 ..., 0, 0, 0]"] ;
678 -> 684 ;
685 [label="X[0] <= 11.5\ngini = 0.8\nsamples = 5\nvalue = [0, 0, 0 ..., 0, 0, 0]"] ;
684 -> 685 ;
686 [label="gini = 0.0\nsamples = 1\nvalue = [0, 0, 0 ..., 0, 0, 0]"] ;
685 -> 686 ;
687 [label="X[0] <= 12.5\ngini = 0.75\nsamples = 4\nvalue = [0, 0, 0 ..., 0, 0, 0]"] ;
685 -> 687 ;
688 [label="gini = 0.0\nsamples = 1\nvalue = [0, 0, 0 ..., 0, 0, 0]"] ;
687 -> 688 ;
689 [label="X[0] <= 13.5\ngini = 0.667\nsamples = 3\nvalue = [0, 0, 0 ..., 0, 0, 0]"] ;
687 -> 689 ;
690 [label="gini = 0.0\nsamples = 1\nvalue = [0, 0, 0 ..., 0, 0, 0]"] ;
689 -> 690 ;
691 [label="X[0] <= 14.5\ngini = 0.5\nsamples = 2\nvalue = [0, 0, 0 ..., 0, 0, 0]"] ;
689 -> 691 ;
692 [label="gini = 0.0\nsamples = 1\nvalue = [0, 0, 0 ..., 0, 0, 0]"] ;
691 -> 692 ;
693 [label="gini = 0.0\nsamples = 1\nvalue = [0, 0, 0 ..., 0, 0, 0]"] ;
691 -> 693 ;
694 [label="X[1] <= 6.5\ngini = 0.9\nsamples = 10\nvalue = [0, 0, 0 ..., 0, 0, 0]"] ;
684 -> 694 ;
695 [label="X[0] <= 11.5\ngini = 0.8\nsamples = 5\nvalue = [0, 0, 0 ..., 0, 0, 0]"] ;
694 -> 695 ;
696 [label="gini = 0.0\nsamples = 1\nvalue = [0, 0, 0 ..., 0, 0, 0]"] ;
695 -> 696 ;
697 [label="X[0] <= 12.5\ngini = 0.75\nsamples = 4\nvalue = [0, 0, 0 ..., 0, 0, 0]"] ;
695 -> 697 ;
698 [label="gini = 0.0\nsamples = 1\nvalue = [0, 0, 0 ..., 0, 0, 0]"] ;
697 -> 698 ;
699 [label="X[0] <= 13.5\ngini = 0.667\nsamples = 3\nvalue = [0, 0, 0 ..., 0, 0, 0]"] ;
697 -> 699 ;
700 [label="gini = 0.0\nsamples = 1\nvalue = [0, 0, 0 ..., 0, 0, 0]"] ;
699 -> 700 ;
701 [label="X[0] <= 14.5\ngini = 0.5\nsamples = 2\nvalue = [0, 0, 0 ..., 0, 0, 0]"] ;
699 -> 701 ;
702 [label="gini = 0.0\nsamples = 1\nvalue = [0, 0, 0 ..., 0, 0, 0]"] ;
701 -> 702 ;
703 [label="gini = 0.0\nsamples = 1\nvalue = [0, 0, 0 ..., 0, 0, 0]"] ;
701 -> 703 ;
704 [label="X[0] <= 11.5\ngini = 0.8\nsamples = 5\nvalue = [0, 0, 0 ..., 0, 0, 0]"] ;
694 -> 704 ;
705 [label="gini = 0.0\nsamples = 1\nvalue = [0, 0, 0 ..., 0, 0, 0]"] ;
704 -> 705 ;
706 [label="X[0] <= 12.5\ngini = 0.75\nsamples = 4\nvalue = [0, 0, 0 ..., 0, 0, 0]"] ;
704 -> 706 ;
707 [label="gini = 0.0\nsamples = 1\nvalue = [0, 0, 0 ..., 0, 0, 0]"] ;
706 -> 707 ;
708 [label="X[0] <= 13.5\ngini = 0.667\nsamples = 3\nvalue = [0, 0, 0 ..., 0, 0, 0]"] ;
706 -> 708 ;
709 [label="gini = 0.0\nsamples = 1\nvalue = [0, 0, 0 ..., 0, 0, 0]"] ;
708 -> 709 ;
710 [label="X[0] <= 14.5\ngini = 0.5\nsamples = 2\nvalue = [0, 0, 0 ..., 0, 0, 0]"] ;
708 -> 710 ;
711 [label="gini = 0.0\nsamples = 1\nvalue = [0, 0, 0 ..., 0, 0, 0]"] ;
710 -> 711 ;
712 [label="gini = 0.0\nsamples = 1\nvalue = [0, 0, 0 ..., 0, 0, 0]"] ;
710 -> 712 ;
713 [label="X[2] <= 11.0\ngini = 0.996\nsamples = 260\nvalue = [0, 0, 0 ..., 0, 0, 0]"] ;
583 -> 713 ;
714 [label="X[1] <= 3.5\ngini = 0.985\nsamples = 65\nvalue = [0, 0, 0 ..., 0, 0, 0]"] ;
713 -> 714 ;
715 [label="X[0] <= 3.5\ngini = 0.923\nsamples = 13\nvalue = [0, 0, 0 ..., 0, 0, 0]"] ;
714 -> 715 ;
716 [label="gini = 0.0\nsamples = 1\nvalue = [0, 0, 0 ..., 0, 0, 0]"] ;
715 -> 716 ;
717 [label="X[0] <= 4.5\ngini = 0.917\nsamples = 12\nvalue = [0, 0, 0 ..., 0, 0, 0]"] ;
715 -> 717 ;
718 [label="gini = 0.0\nsamples = 1\nvalue = [0, 0, 0 ..., 0, 0, 0]"] ;
717 -> 718 ;
719 [label="X[0] <= 5.5\ngini = 0.909\nsamples = 11\nvalue = [0, 0, 0 ..., 0, 0, 0]"] ;
717 -> 719 ;
720 [label="gini = 0.0\nsamples = 1\nvalue = [0, 0, 0 ..., 0, 0, 0]"] ;
719 -> 720 ;
721 [label="X[0] <= 6.5\ngini = 0.9\nsamples = 10\nvalue = [0, 0, 0 ..., 0, 0, 0]"] ;
719 -> 721 ;
722 [label="gini = 0.0\nsamples = 1\nvalue = [0, 0, 0 ..., 0, 0, 0]"] ;
721 -> 722 ;
723 [label="X[0] <= 7.5\ngini = 0.889\nsamples = 9\nvalue = [0, 0, 0 ..., 0, 0, 0]"] ;
721 -> 723 ;
724 [label="gini = 0.0\nsamples = 1\nvalue = [0, 0, 0 ..., 0, 0, 0]"] ;
723 -> 724 ;
725 [label="X[0] <= 8.5\ngini = 0.875\nsamples = 8\nvalue = [0, 0, 0 ..., 0, 0, 0]"] ;
723 -> 725 ;
726 [label="gini = 0.0\nsamples = 1\nvalue = [0, 0, 0 ..., 0, 0, 0]"] ;
725 -> 726 ;
727 [label="X[0] <= 9.5\ngini = 0.857\nsamples = 7\nvalue = [0, 0, 0 ..., 0, 0, 0]"] ;
725 -> 727 ;
728 [label="gini = 0.0\nsamples = 1\nvalue = [0, 0, 0 ..., 0, 0, 0]"] ;
727 -> 728 ;
729 [label="X[0] <= 10.5\ngini = 0.833\nsamples = 6\nvalue = [0, 0, 0 ..., 0, 0, 0]"] ;
727 -> 729 ;
730 [label="gini = 0.0\nsamples = 1\nvalue = [0, 0, 0 ..., 0, 0, 0]"] ;
729 -> 730 ;
731 [label="X[0] <= 11.5\ngini = 0.8\nsamples = 5\nvalue = [0, 0, 0 ..., 0, 0, 0]"] ;
729 -> 731 ;
732 [label="gini = 0.0\nsamples = 1\nvalue = [0, 0, 0 ..., 0, 0, 0]"] ;
731 -> 732 ;
733 [label="X[0] <= 12.5\ngini = 0.75\nsamples = 4\nvalue = [0, 0, 0 ..., 0, 0, 0]"] ;
731 -> 733 ;
734 [label="gini = 0.0\nsamples = 1\nvalue = [0, 0, 0 ..., 0, 0, 0]"] ;
733 -> 734 ;
735 [label="X[0] <= 13.5\ngini = 0.667\nsamples = 3\nvalue = [0, 0, 0 ..., 0, 0, 0]"] ;
733 -> 735 ;
736 [label="gini = 0.0\nsamples = 1\nvalue = [0, 0, 0 ..., 0, 0, 0]"] ;
735 -> 736 ;
737 [label="X[0] <= 14.5\ngini = 0.5\nsamples = 2\nvalue = [0, 0, 0 ..., 0, 0, 0]"] ;
735 -> 737 ;
738 [label="gini = 0.0\nsamples = 1\nvalue = [0, 0, 0 ..., 0, 0, 0]"] ;
737 -> 738 ;
739 [label="gini = 0.0\nsamples = 1\nvalue = [0, 0, 0 ..., 0, 0, 0]"] ;
737 -> 739 ;
740 [label="X[1] <= 4.5\ngini = 0.981\nsamples = 52\nvalue = [0, 0, 0 ..., 0, 0, 0]"] ;
714 -> 740 ;
741 [label="X[0] <= 3.5\ngini = 0.923\nsamples = 13\nvalue = [0, 0, 0 ..., 0, 0, 0]"] ;
740 -> 741 ;
742 [label="gini = 0.0\nsamples = 1\nvalue = [0, 0, 0 ..., 0, 0, 0]"] ;
741 -> 742 ;
743 [label="X[0] <= 4.5\ngini = 0.917\nsamples = 12\nvalue = [0, 0, 0 ..., 0, 0, 0]"] ;
741 -> 743 ;
744 [label="gini = 0.0\nsamples = 1\nvalue = [0, 0, 0 ..., 0, 0, 0]"] ;
743 -> 744 ;
745 [label="X[0] <= 5.5\ngini = 0.909\nsamples = 11\nvalue = [0, 0, 0 ..., 0, 0, 0]"] ;
743 -> 745 ;
746 [label="gini = 0.0\nsamples = 1\nvalue = [0, 0, 0 ..., 0, 0, 0]"] ;
745 -> 746 ;
747 [label="X[0] <= 6.5\ngini = 0.9\nsamples = 10\nvalue = [0, 0, 0 ..., 0, 0, 0]"] ;
745 -> 747 ;
748 [label="gini = 0.0\nsamples = 1\nvalue = [0, 0, 0 ..., 0, 0, 0]"] ;
747 -> 748 ;
749 [label="X[0] <= 7.5\ngini = 0.889\nsamples = 9\nvalue = [0, 0, 0 ..., 0, 0, 0]"] ;
747 -> 749 ;
750 [label="gini = 0.0\nsamples = 1\nvalue = [0, 0, 0 ..., 0, 0, 0]"] ;
749 -> 750 ;
751 [label="X[0] <= 8.5\ngini = 0.875\nsamples = 8\nvalue = [0, 0, 0 ..., 0, 0, 0]"] ;
749 -> 751 ;
752 [label="gini = 0.0\nsamples = 1\nvalue = [0, 0, 0 ..., 0, 0, 0]"] ;
751 -> 752 ;
753 [label="X[0] <= 9.5\ngini = 0.857\nsamples = 7\nvalue = [0, 0, 0 ..., 0, 0, 0]"] ;
751 -> 753 ;
754 [label="gini = 0.0\nsamples = 1\nvalue = [0, 0, 0 ..., 0, 0, 0]"] ;
753 -> 754 ;
755 [label="X[0] <= 10.5\ngini = 0.833\nsamples = 6\nvalue = [0, 0, 0 ..., 0, 0, 0]"] ;
753 -> 755 ;
756 [label="gini = 0.0\nsamples = 1\nvalue = [0, 0, 0 ..., 0, 0, 0]"] ;
755 -> 756 ;
757 [label="X[0] <= 11.5\ngini = 0.8\nsamples = 5\nvalue = [0, 0, 0 ..., 0, 0, 0]"] ;
755 -> 757 ;
758 [label="gini = 0.0\nsamples = 1\nvalue = [0, 0, 0 ..., 0, 0, 0]"] ;
757 -> 758 ;
759 [label="X[0] <= 12.5\ngini = 0.75\nsamples = 4\nvalue = [0, 0, 0 ..., 0, 0, 0]"] ;
757 -> 759 ;
760 [label="gini = 0.0\nsamples = 1\nvalue = [0, 0, 0 ..., 0, 0, 0]"] ;
759 -> 760 ;
761 [label="X[0] <= 13.5\ngini = 0.667\nsamples = 3\nvalue = [0, 0, 0 ..., 0, 0, 0]"] ;
759 -> 761 ;
762 [label="gini = 0.0\nsamples = 1\nvalue = [0, 0, 0 ..., 0, 0, 0]"] ;
761 -> 762 ;
763 [label="X[0] <= 14.5\ngini = 0.5\nsamples = 2\nvalue = [0, 0, 0 ..., 0, 0, 0]"] ;
761 -> 763 ;
764 [label="gini = 0.0\nsamples = 1\nvalue = [0, 0, 0 ..., 0, 0, 0]"] ;
763 -> 764 ;
765 [label="gini = 0.0\nsamples = 1\nvalue = [0, 0, 0 ..., 0, 0, 0]"] ;
763 -> 765 ;
766 [label="X[1] <= 5.5\ngini = 0.974\nsamples = 39\nvalue = [0, 0, 0 ..., 0, 0, 0]"] ;
740 -> 766 ;
767 [label="X[0] <= 3.5\ngini = 0.923\nsamples = 13\nvalue = [0, 0, 0 ..., 0, 0, 0]"] ;
766 -> 767 ;
768 [label="gini = 0.0\nsamples = 1\nvalue = [0, 0, 0 ..., 0, 0, 0]"] ;
767 -> 768 ;
769 [label="X[0] <= 4.5\ngini = 0.917\nsamples = 12\nvalue = [0, 0, 0 ..., 0, 0, 0]"] ;
767 -> 769 ;
770 [label="gini = 0.0\nsamples = 1\nvalue = [0, 0, 0 ..., 0, 0, 0]"] ;
769 -> 770 ;
771 [label="X[0] <= 5.5\ngini = 0.909\nsamples = 11\nvalue = [0, 0, 0 ..., 0, 0, 0]"] ;
769 -> 771 ;
772 [label="gini = 0.0\nsamples = 1\nvalue = [0, 0, 0 ..., 0, 0, 0]"] ;
771 -> 772 ;
773 [label="X[0] <= 6.5\ngini = 0.9\nsamples = 10\nvalue = [0, 0, 0 ..., 0, 0, 0]"] ;
771 -> 773 ;
774 [label="gini = 0.0\nsamples = 1\nvalue = [0, 0, 0 ..., 0, 0, 0]"] ;
773 -> 774 ;
775 [label="X[0] <= 7.5\ngini = 0.889\nsamples = 9\nvalue = [0, 0, 0 ..., 0, 0, 0]"] ;
773 -> 775 ;
776 [label="gini = 0.0\nsamples = 1\nvalue = [0, 0, 0 ..., 0, 0, 0]"] ;
775 -> 776 ;
777 [label="X[0] <= 8.5\ngini = 0.875\nsamples = 8\nvalue = [0, 0, 0 ..., 0, 0, 0]"] ;
775 -> 777 ;
778 [label="gini = 0.0\nsamples = 1\nvalue = [0, 0, 0 ..., 0, 0, 0]"] ;
777 -> 778 ;
779 [label="X[0] <= 9.5\ngini = 0.857\nsamples = 7\nvalue = [0, 0, 0 ..., 0, 0, 0]"] ;
777 -> 779 ;
780 [label="gini = 0.0\nsamples = 1\nvalue = [0, 0, 0 ..., 0, 0, 0]"] ;
779 -> 780 ;
781 [label="X[0] <= 10.5\ngini = 0.833\nsamples = 6\nvalue = [0, 0, 0 ..., 0, 0, 0]"] ;
779 -> 781 ;
782 [label="gini = 0.0\nsamples = 1\nvalue = [0, 0, 0 ..., 0, 0, 0]"] ;
781 -> 782 ;
783 [label="X[0] <= 11.5\ngini = 0.8\nsamples = 5\nvalue = [0, 0, 0 ..., 0, 0, 0]"] ;
781 -> 783 ;
784 [label="gini = 0.0\nsamples = 1\nvalue = [0, 0, 0 ..., 0, 0, 0]"] ;
783 -> 784 ;
785 [label="X[0] <= 12.5\ngini = 0.75\nsamples = 4\nvalue = [0, 0, 0 ..., 0, 0, 0]"] ;
783 -> 785 ;
786 [label="gini = 0.0\nsamples = 1\nvalue = [0, 0, 0 ..., 0, 0, 0]"] ;
785 -> 786 ;
787 [label="X[0] <= 13.5\ngini = 0.667\nsamples = 3\nvalue = [0, 0, 0 ..., 0, 0, 0]"] ;
785 -> 787 ;
788 [label="gini = 0.0\nsamples = 1\nvalue = [0, 0, 0 ..., 0, 0, 0]"] ;
787 -> 788 ;
789 [label="X[0] <= 14.5\ngini = 0.5\nsamples = 2\nvalue = [0, 0, 0 ..., 0, 0, 0]"] ;
787 -> 789 ;
790 [label="gini = 0.0\nsamples = 1\nvalue = [0, 0, 0 ..., 0, 0, 0]"] ;
789 -> 790 ;
791 [label="gini = 0.0\nsamples = 1\nvalue = [0, 0, 0 ..., 0, 0, 0]"] ;
789 -> 791 ;
792 [label="X[0] <= 3.5\ngini = 0.962\nsamples = 26\nvalue = [0, 0, 0 ..., 0, 0, 0]"] ;
766 -> 792 ;
793 [label="X[1] <= 6.5\ngini = 0.5\nsamples = 2\nvalue = [0, 0, 0 ..., 0, 0, 0]"] ;
792 -> 793 ;
794 [label="gini = 0.0\nsamples = 1\nvalue = [0, 0, 0 ..., 0, 0, 0]"] ;
793 -> 794 ;
795 [label="gini = 0.0\nsamples = 1\nvalue = [0, 0, 0 ..., 0, 0, 0]"] ;
793 -> 795 ;
796 [label="X[0] <= 4.5\ngini = 0.958\nsamples = 24\nvalue = [0, 0, 0 ..., 0, 0, 0]"] ;
792 -> 796 ;
797 [label="X[1] <= 6.5\ngini = 0.5\nsamples = 2\nvalue = [0, 0, 0 ..., 0, 0, 0]"] ;
796 -> 797 ;
798 [label="gini = 0.0\nsamples = 1\nvalue = [0, 0, 0 ..., 0, 0, 0]"] ;
797 -> 798 ;
799 [label="gini = 0.0\nsamples = 1\nvalue = [0, 0, 0 ..., 0, 0, 0]"] ;
797 -> 799 ;
800 [label="X[1] <= 6.5\ngini = 0.955\nsamples = 22\nvalue = [0, 0, 0 ..., 0, 0, 0]"] ;
796 -> 800 ;
801 [label="X[0] <= 5.5\ngini = 0.909\nsamples = 11\nvalue = [0, 0, 0 ..., 0, 0, 0]"] ;
800 -> 801 ;
802 [label="gini = 0.0\nsamples = 1\nvalue = [0, 0, 0 ..., 0, 0, 0]"] ;
801 -> 802 ;
803 [label="X[0] <= 6.5\ngini = 0.9\nsamples = 10\nvalue = [0, 0, 0 ..., 0, 0, 0]"] ;
801 -> 803 ;
804 [label="gini = 0.0\nsamples = 1\nvalue = [0, 0, 0 ..., 0, 0, 0]"] ;
803 -> 804 ;
805 [label="X[0] <= 7.5\ngini = 0.889\nsamples = 9\nvalue = [0, 0, 0 ..., 0, 0, 0]"] ;
803 -> 805 ;
806 [label="gini = 0.0\nsamples = 1\nvalue = [0, 0, 0 ..., 0, 0, 0]"] ;
805 -> 806 ;
807 [label="X[0] <= 8.5\ngini = 0.875\nsamples = 8\nvalue = [0, 0, 0 ..., 0, 0, 0]"] ;
805 -> 807 ;
808 [label="gini = 0.0\nsamples = 1\nvalue = [0, 0, 0 ..., 0, 0, 0]"] ;
807 -> 808 ;
809 [label="X[0] <= 9.5\ngini = 0.857\nsamples = 7\nvalue = [0, 0, 0 ..., 0, 0, 0]"] ;
807 -> 809 ;
810 [label="gini = 0.0\nsamples = 1\nvalue = [0, 0, 0 ..., 0, 0, 0]"] ;
809 -> 810 ;
811 [label="X[0] <= 10.5\ngini = 0.833\nsamples = 6\nvalue = [0, 0, 0 ..., 0, 0, 0]"] ;
809 -> 811 ;
812 [label="gini = 0.0\nsamples = 1\nvalue = [0, 0, 0 ..., 0, 0, 0]"] ;
811 -> 812 ;
813 [label="X[0] <= 11.5\ngini = 0.8\nsamples = 5\nvalue = [0, 0, 0 ..., 0, 0, 0]"] ;
811 -> 813 ;
814 [label="gini = 0.0\nsamples = 1\nvalue = [0, 0, 0 ..., 0, 0, 0]"] ;
813 -> 814 ;
815 [label="X[0] <= 12.5\ngini = 0.75\nsamples = 4\nvalue = [0, 0, 0 ..., 0, 0, 0]"] ;
813 -> 815 ;
816 [label="gini = 0.0\nsamples = 1\nvalue = [0, 0, 0 ..., 0, 0, 0]"] ;
815 -> 816 ;
817 [label="X[0] <= 13.5\ngini = 0.667\nsamples = 3\nvalue = [0, 0, 0 ..., 0, 0, 0]"] ;
815 -> 817 ;
818 [label="gini = 0.0\nsamples = 1\nvalue = [0, 0, 0 ..., 0, 0, 0]"] ;
817 -> 818 ;
819 [label="X[0] <= 14.5\ngini = 0.5\nsamples = 2\nvalue = [0, 0, 0 ..., 0, 0, 0]"] ;
817 -> 819 ;
820 [label="gini = 0.0\nsamples = 1\nvalue = [0, 0, 0 ..., 0, 0, 0]"] ;
819 -> 820 ;
821 [label="gini = 0.0\nsamples = 1\nvalue = [0, 0, 0 ..., 0, 0, 0]"] ;
819 -> 821 ;
822 [label="X[0] <= 5.5\ngini = 0.909\nsamples = 11\nvalue = [0, 0, 0 ..., 0, 0, 0]"] ;
800 -> 822 ;
823 [label="gini = 0.0\nsamples = 1\nvalue = [0, 0, 0 ..., 0, 0, 0]"] ;
822 -> 823 ;
824 [label="X[0] <= 6.5\ngini = 0.9\nsamples = 10\nvalue = [0, 0, 0 ..., 0, 0, 0]"] ;
822 -> 824 ;
825 [label="gini = 0.0\nsamples = 1\nvalue = [0, 0, 0 ..., 0, 0, 0]"] ;
824 -> 825 ;
826 [label="X[0] <= 7.5\ngini = 0.889\nsamples = 9\nvalue = [0, 0, 0 ..., 0, 0, 0]"] ;
824 -> 826 ;
827 [label="gini = 0.0\nsamples = 1\nvalue = [0, 0, 0 ..., 0, 0, 0]"] ;
826 -> 827 ;
828 [label="X[0] <= 8.5\ngini = 0.875\nsamples = 8\nvalue = [0, 0, 0 ..., 0, 0, 0]"] ;
826 -> 828 ;
829 [label="gini = 0.0\nsamples = 1\nvalue = [0, 0, 0 ..., 0, 0, 0]"] ;
828 -> 829 ;
830 [label="X[0] <= 9.5\ngini = 0.857\nsamples = 7\nvalue = [0, 0, 0 ..., 0, 0, 0]"] ;
828 -> 830 ;
831 [label="gini = 0.0\nsamples = 1\nvalue = [0, 0, 0 ..., 0, 0, 0]"] ;
830 -> 831 ;
832 [label="X[0] <= 10.5\ngini = 0.833\nsamples = 6\nvalue = [0, 0, 0 ..., 0, 0, 0]"] ;
830 -> 832 ;
833 [label="gini = 0.0\nsamples = 1\nvalue = [0, 0, 0 ..., 0, 0, 0]"] ;
832 -> 833 ;
834 [label="X[0] <= 11.5\ngini = 0.8\nsamples = 5\nvalue = [0, 0, 0 ..., 0, 0, 0]"] ;
832 -> 834 ;
835 [label="gini = 0.0\nsamples = 1\nvalue = [0, 0, 0 ..., 0, 0, 0]"] ;
834 -> 835 ;
836 [label="X[0] <= 12.5\ngini = 0.75\nsamples = 4\nvalue = [0, 0, 0 ..., 0, 0, 0]"] ;
834 -> 836 ;
837 [label="gini = 0.0\nsamples = 1\nvalue = [0, 0, 0 ..., 0, 0, 0]"] ;
836 -> 837 ;
838 [label="X[0] <= 13.5\ngini = 0.667\nsamples = 3\nvalue = [0, 0, 0 ..., 0, 0, 0]"] ;
836 -> 838 ;
839 [label="gini = 0.0\nsamples = 1\nvalue = [0, 0, 0 ..., 0, 0, 0]"] ;
838 -> 839 ;
840 [label="X[0] <= 14.5\ngini = 0.5\nsamples = 2\nvalue = [0, 0, 0 ..., 0, 0, 0]"] ;
838 -> 840 ;
841 [label="gini = 0.0\nsamples = 1\nvalue = [0, 0, 0 ..., 0, 0, 0]"] ;
840 -> 841 ;
842 [label="gini = 0.0\nsamples = 1\nvalue = [0, 0, 0 ..., 0, 0, 0]"] ;
840 -> 842 ;
843 [label="X[2] <= 15.0\ngini = 0.995\nsamples = 195\nvalue = [0, 0, 0 ..., 0, 0, 0]"] ;
713 -> 843 ;
844 [label="X[0] <= 3.5\ngini = 0.985\nsamples = 65\nvalue = [0, 0, 0 ..., 0, 0, 0]"] ;
843 -> 844 ;
845 [label="X[1] <= 3.5\ngini = 0.8\nsamples = 5\nvalue = [0, 0, 0 ..., 0, 0, 0]"] ;
844 -> 845 ;
846 [label="gini = 0.0\nsamples = 1\nvalue = [0, 0, 0 ..., 0, 0, 0]"] ;
845 -> 846 ;
847 [label="X[1] <= 4.5\ngini = 0.75\nsamples = 4\nvalue = [0, 0, 0 ..., 0, 0, 0]"] ;
845 -> 847 ;
848 [label="gini = 0.0\nsamples = 1\nvalue = [0, 0, 0 ..., 0, 0, 0]"] ;
847 -> 848 ;
849 [label="X[1] <= 5.5\ngini = 0.667\nsamples = 3\nvalue = [0, 0, 0 ..., 0, 0, 0]"] ;
847 -> 849 ;
850 [label="gini = 0.0\nsamples = 1\nvalue = [0, 0, 0 ..., 0, 0, 0]"] ;
849 -> 850 ;
851 [label="X[1] <= 6.5\ngini = 0.5\nsamples = 2\nvalue = [0, 0, 0 ..., 0, 0, 0]"] ;
849 -> 851 ;
852 [label="gini = 0.0\nsamples = 1\nvalue = [0, 0, 0 ..., 0, 0, 0]"] ;
851 -> 852 ;
853 [label="gini = 0.0\nsamples = 1\nvalue = [0, 0, 0 ..., 0, 0, 0]"] ;
851 -> 853 ;
854 [label="X[1] <= 3.5\ngini = 0.983\nsamples = 60\nvalue = [0, 0, 0 ..., 0, 0, 0]"] ;
844 -> 854 ;
855 [label="X[0] <= 4.5\ngini = 0.917\nsamples = 12\nvalue = [0, 0, 0 ..., 0, 0, 0]"] ;
854 -> 855 ;
856 [label="gini = 0.0\nsamples = 1\nvalue = [0, 0, 0 ..., 0, 0, 0]"] ;
855 -> 856 ;
857 [label="X[0] <= 5.5\ngini = 0.909\nsamples = 11\nvalue = [0, 0, 0 ..., 0, 0, 0]"] ;
855 -> 857 ;
858 [label="gini = 0.0\nsamples = 1\nvalue = [0, 0, 0 ..., 0, 0, 0]"] ;
857 -> 858 ;
859 [label="X[0] <= 6.5\ngini = 0.9\nsamples = 10\nvalue = [0, 0, 0 ..., 0, 0, 0]"] ;
857 -> 859 ;
860 [label="gini = 0.0\nsamples = 1\nvalue = [0, 0, 0 ..., 0, 0, 0]"] ;
859 -> 860 ;
861 [label="X[0] <= 7.5\ngini = 0.889\nsamples = 9\nvalue = [0, 0, 0 ..., 0, 0, 0]"] ;
859 -> 861 ;
862 [label="gini = 0.0\nsamples = 1\nvalue = [0, 0, 0 ..., 0, 0, 0]"] ;
861 -> 862 ;
863 [label="X[0] <= 8.5\ngini = 0.875\nsamples = 8\nvalue = [0, 0, 0 ..., 0, 0, 0]"] ;
861 -> 863 ;
864 [label="gini = 0.0\nsamples = 1\nvalue = [0, 0, 0 ..., 0, 0, 0]"] ;
863 -> 864 ;
865 [label="X[0] <= 9.5\ngini = 0.857\nsamples = 7\nvalue = [0, 0, 0 ..., 0, 0, 0]"] ;
863 -> 865 ;
866 [label="gini = 0.0\nsamples = 1\nvalue = [0, 0, 0 ..., 0, 0, 0]"] ;
865 -> 866 ;
867 [label="X[0] <= 10.5\ngini = 0.833\nsamples = 6\nvalue = [0, 0, 0 ..., 0, 0, 0]"] ;
865 -> 867 ;
868 [label="gini = 0.0\nsamples = 1\nvalue = [0, 0, 0 ..., 0, 0, 0]"] ;
867 -> 868 ;
869 [label="X[0] <= 11.5\ngini = 0.8\nsamples = 5\nvalue = [0, 0, 0 ..., 0, 0, 0]"] ;
867 -> 869 ;
870 [label="gini = 0.0\nsamples = 1\nvalue = [0, 0, 0 ..., 0, 0, 0]"] ;
869 -> 870 ;
871 [label="X[0] <= 12.5\ngini = 0.75\nsamples = 4\nvalue = [0, 0, 0 ..., 0, 0, 0]"] ;
869 -> 871 ;
872 [label="gini = 0.0\nsamples = 1\nvalue = [0, 0, 0 ..., 0, 0, 0]"] ;
871 -> 872 ;
873 [label="X[0] <= 13.5\ngini = 0.667\nsamples = 3\nvalue = [0, 0, 0 ..., 0, 0, 0]"] ;
871 -> 873 ;
874 [label="gini = 0.0\nsamples = 1\nvalue = [0, 0, 0 ..., 0, 0, 0]"] ;
873 -> 874 ;
875 [label="X[0] <= 14.5\ngini = 0.5\nsamples = 2\nvalue = [0, 0, 0 ..., 0, 0, 0]"] ;
873 -> 875 ;
876 [label="gini = 0.0\nsamples = 1\nvalue = [0, 0, 0 ..., 0, 0, 0]"] ;
875 -> 876 ;
877 [label="gini = 0.0\nsamples = 1\nvalue = [0, 0, 0 ..., 0, 0, 0]"] ;
875 -> 877 ;
878 [label="X[0] <= 4.5\ngini = 0.979\nsamples = 48\nvalue = [0, 0, 0 ..., 0, 0, 0]"] ;
854 -> 878 ;
879 [label="X[1] <= 4.5\ngini = 0.75\nsamples = 4\nvalue = [0, 0, 0 ..., 0, 0, 0]"] ;
878 -> 879 ;
880 [label="gini = 0.0\nsamples = 1\nvalue = [0, 0, 0 ..., 0, 0, 0]"] ;
879 -> 880 ;
881 [label="X[1] <= 5.5\ngini = 0.667\nsamples = 3\nvalue = [0, 0, 0 ..., 0, 0, 0]"] ;
879 -> 881 ;
882 [label="gini = 0.0\nsamples = 1\nvalue = [0, 0, 0 ..., 0, 0, 0]"] ;
881 -> 882 ;
883 [label="X[1] <= 6.5\ngini = 0.5\nsamples = 2\nvalue = [0, 0, 0 ..., 0, 0, 0]"] ;
881 -> 883 ;
884 [label="gini = 0.0\nsamples = 1\nvalue = [0, 0, 0 ..., 0, 0, 0]"] ;
883 -> 884 ;
885 [label="gini = 0.0\nsamples = 1\nvalue = [0, 0, 0 ..., 0, 0, 0]"] ;
883 -> 885 ;
886 [label="X[0] <= 5.5\ngini = 0.977\nsamples = 44\nvalue = [0, 0, 0 ..., 0, 0, 0]"] ;
878 -> 886 ;
887 [label="X[1] <= 4.5\ngini = 0.75\nsamples = 4\nvalue = [0, 0, 0 ..., 0, 0, 0]"] ;
886 -> 887 ;
888 [label="gini = 0.0\nsamples = 1\nvalue = [0, 0, 0 ..., 0, 0, 0]"] ;
887 -> 888 ;
889 [label="X[1] <= 5.5\ngini = 0.667\nsamples = 3\nvalue = [0, 0, 0 ..., 0, 0, 0]"] ;
887 -> 889 ;
890 [label="gini = 0.0\nsamples = 1\nvalue = [0, 0, 0 ..., 0, 0, 0]"] ;
889 -> 890 ;
891 [label="X[1] <= 6.5\ngini = 0.5\nsamples = 2\nvalue = [0, 0, 0 ..., 0, 0, 0]"] ;
889 -> 891 ;
892 [label="gini = 0.0\nsamples = 1\nvalue = [0, 0, 0 ..., 0, 0, 0]"] ;
891 -> 892 ;
893 [label="gini = 0.0\nsamples = 1\nvalue = [0, 0, 0 ..., 0, 0, 0]"] ;
891 -> 893 ;
894 [label="X[0] <= 6.5\ngini = 0.975\nsamples = 40\nvalue = [0, 0, 0 ..., 0, 0, 0]"] ;
886 -> 894 ;
895 [label="X[1] <= 4.5\ngini = 0.75\nsamples = 4\nvalue = [0, 0, 0 ..., 0, 0, 0]"] ;
894 -> 895 ;
896 [label="gini = 0.0\nsamples = 1\nvalue = [0, 0, 0 ..., 0, 0, 0]"] ;
895 -> 896 ;
897 [label="X[1] <= 5.5\ngini = 0.667\nsamples = 3\nvalue = [0, 0, 0 ..., 0, 0, 0]"] ;
895 -> 897 ;
898 [label="gini = 0.0\nsamples = 1\nvalue = [0, 0, 0 ..., 0, 0, 0]"] ;
897 -> 898 ;
899 [label="X[1] <= 6.5\ngini = 0.5\nsamples = 2\nvalue = [0, 0, 0 ..., 0, 0, 0]"] ;
897 -> 899 ;
900 [label="gini = 0.0\nsamples = 1\nvalue = [0, 0, 0 ..., 0, 0, 0]"] ;
899 -> 900 ;
901 [label="gini = 0.0\nsamples = 1\nvalue = [0, 0, 0 ..., 0, 0, 0]"] ;
899 -> 901 ;
902 [label="X[1] <= 4.5\ngini = 0.972\nsamples = 36\nvalue = [0, 0, 0 ..., 0, 0, 0]"] ;
894 -> 902 ;
903 [label="X[0] <= 7.5\ngini = 0.889\nsamples = 9\nvalue = [0, 0, 0 ..., 0, 0, 0]"] ;
902 -> 903 ;
904 [label="gini = 0.0\nsamples = 1\nvalue = [0, 0, 0 ..., 0, 0, 0]"] ;
903 -> 904 ;
905 [label="X[0] <= 8.5\ngini = 0.875\nsamples = 8\nvalue = [0, 0, 0 ..., 0, 0, 0]"] ;
903 -> 905 ;
906 [label="gini = 0.0\nsamples = 1\nvalue = [0, 0, 0 ..., 0, 0, 0]"] ;
905 -> 906 ;
907 [label="X[0] <= 9.5\ngini = 0.857\nsamples = 7\nvalue = [0, 0, 0 ..., 0, 0, 0]"] ;
905 -> 907 ;
908 [label="gini = 0.0\nsamples = 1\nvalue = [0, 0, 0 ..., 0, 0, 0]"] ;
907 -> 908 ;
909 [label="X[0] <= 10.5\ngini = 0.833\nsamples = 6\nvalue = [0, 0, 0 ..., 0, 0, 0]"] ;
907 -> 909 ;
910 [label="gini = 0.0\nsamples = 1\nvalue = [0, 0, 0 ..., 0, 0, 0]"] ;
909 -> 910 ;
911 [label="X[0] <= 11.5\ngini = 0.8\nsamples = 5\nvalue = [0, 0, 0 ..., 0, 0, 0]"] ;
909 -> 911 ;
912 [label="gini = 0.0\nsamples = 1\nvalue = [0, 0, 0 ..., 0, 0, 0]"] ;
911 -> 912 ;
913 [label="X[0] <= 12.5\ngini = 0.75\nsamples = 4\nvalue = [0, 0, 0 ..., 0, 0, 0]"] ;
911 -> 913 ;
914 [label="gini = 0.0\nsamples = 1\nvalue = [0, 0, 0 ..., 0, 0, 0]"] ;
913 -> 914 ;
915 [label="X[0] <= 13.5\ngini = 0.667\nsamples = 3\nvalue = [0, 0, 0 ..., 0, 0, 0]"] ;
913 -> 915 ;
916 [label="gini = 0.0\nsamples = 1\nvalue = [0, 0, 0 ..., 0, 0, 0]"] ;
915 -> 916 ;
917 [label="X[0] <= 14.5\ngini = 0.5\nsamples = 2\nvalue = [0, 0, 0 ..., 0, 0, 0]"] ;
915 -> 917 ;
918 [label="gini = 0.0\nsamples = 1\nvalue = [0, 0, 0 ..., 0, 0, 0]"] ;
917 -> 918 ;
919 [label="gini = 0.0\nsamples = 1\nvalue = [0, 0, 0 ..., 0, 0, 0]"] ;
917 -> 919 ;
920 [label="X[1] <= 5.5\ngini = 0.963\nsamples = 27\nvalue = [0, 0, 0 ..., 0, 0, 0]"] ;
902 -> 920 ;
921 [label="X[0] <= 7.5\ngini = 0.889\nsamples = 9\nvalue = [0, 0, 0 ..., 0, 0, 0]"] ;
920 -> 921 ;
922 [label="gini = 0.0\nsamples = 1\nvalue = [0, 0, 0 ..., 0, 0, 0]"] ;
921 -> 922 ;
923 [label="X[0] <= 8.5\ngini = 0.875\nsamples = 8\nvalue = [0, 0, 0 ..., 0, 0, 0]"] ;
921 -> 923 ;
924 [label="gini = 0.0\nsamples = 1\nvalue = [0, 0, 0 ..., 0, 0, 0]"] ;
923 -> 924 ;
925 [label="X[0] <= 9.5\ngini = 0.857\nsamples = 7\nvalue = [0, 0, 0 ..., 0, 0, 0]"] ;
923 -> 925 ;
926 [label="gini = 0.0\nsamples = 1\nvalue = [0, 0, 0 ..., 0, 0, 0]"] ;
925 -> 926 ;
927 [label="X[0] <= 10.5\ngini = 0.833\nsamples = 6\nvalue = [0, 0, 0 ..., 0, 0, 0]"] ;
925 -> 927 ;
928 [label="gini = 0.0\nsamples = 1\nvalue = [0, 0, 0 ..., 0, 0, 0]"] ;
927 -> 928 ;
929 [label="X[0] <= 11.5\ngini = 0.8\nsamples = 5\nvalue = [0, 0, 0 ..., 0, 0, 0]"] ;
927 -> 929 ;
930 [label="gini = 0.0\nsamples = 1\nvalue = [0, 0, 0 ..., 0, 0, 0]"] ;
929 -> 930 ;
931 [label="X[0] <= 12.5\ngini = 0.75\nsamples = 4\nvalue = [0, 0, 0 ..., 0, 0, 0]"] ;
929 -> 931 ;
932 [label="gini = 0.0\nsamples = 1\nvalue = [0, 0, 0 ..., 0, 0, 0]"] ;
931 -> 932 ;
933 [label="X[0] <= 13.5\ngini = 0.667\nsamples = 3\nvalue = [0, 0, 0 ..., 0, 0, 0]"] ;
931 -> 933 ;
934 [label="gini = 0.0\nsamples = 1\nvalue = [0, 0, 0 ..., 0, 0, 0]"] ;
933 -> 934 ;
935 [label="X[0] <= 14.5\ngini = 0.5\nsamples = 2\nvalue = [0, 0, 0 ..., 0, 0, 0]"] ;
933 -> 935 ;
936 [label="gini = 0.0\nsamples = 1\nvalue = [0, 0, 0 ..., 0, 0, 0]"] ;
935 -> 936 ;
937 [label="gini = 0.0\nsamples = 1\nvalue = [0, 0, 0 ..., 0, 0, 0]"] ;
935 -> 937 ;
938 [label="X[0] <= 7.5\ngini = 0.944\nsamples = 18\nvalue = [0, 0, 0 ..., 0, 0, 0]"] ;
920 -> 938 ;
939 [label="X[1] <= 6.5\ngini = 0.5\nsamples = 2\nvalue = [0, 0, 0 ..., 0, 0, 0]"] ;
938 -> 939 ;
940 [label="gini = 0.0\nsamples = 1\nvalue = [0, 0, 0 ..., 0, 0, 0]"] ;
939 -> 940 ;
941 [label="gini = 0.0\nsamples = 1\nvalue = [0, 0, 0 ..., 0, 0, 0]"] ;
939 -> 941 ;
942 [label="X[0] <= 8.5\ngini = 0.938\nsamples = 16\nvalue = [0, 0, 0 ..., 0, 0, 0]"] ;
938 -> 942 ;
943 [label="X[1] <= 6.5\ngini = 0.5\nsamples = 2\nvalue = [0, 0, 0 ..., 0, 0, 0]"] ;
942 -> 943 ;
944 [label="gini = 0.0\nsamples = 1\nvalue = [0, 0, 0 ..., 0, 0, 0]"] ;
943 -> 944 ;
945 [label="gini = 0.0\nsamples = 1\nvalue = [0, 0, 0 ..., 0, 0, 0]"] ;
943 -> 945 ;
946 [label="X[1] <= 6.5\ngini = 0.929\nsamples = 14\nvalue = [0, 0, 0 ..., 0, 0, 0]"] ;
942 -> 946 ;
947 [label="X[0] <= 9.5\ngini = 0.857\nsamples = 7\nvalue = [0, 0, 0 ..., 0, 0, 0]"] ;
946 -> 947 ;
948 [label="gini = 0.0\nsamples = 1\nvalue = [0, 0, 0 ..., 0, 0, 0]"] ;
947 -> 948 ;
949 [label="X[0] <= 10.5\ngini = 0.833\nsamples = 6\nvalue = [0, 0, 0 ..., 0, 0, 0]"] ;
947 -> 949 ;
950 [label="gini = 0.0\nsamples = 1\nvalue = [0, 0, 0 ..., 0, 0, 0]"] ;
949 -> 950 ;
951 [label="X[0] <= 11.5\ngini = 0.8\nsamples = 5\nvalue = [0, 0, 0 ..., 0, 0, 0]"] ;
949 -> 951 ;
952 [label="gini = 0.0\nsamples = 1\nvalue = [0, 0, 0 ..., 0, 0, 0]"] ;
951 -> 952 ;
953 [label="X[0] <= 12.5\ngini = 0.75\nsamples = 4\nvalue = [0, 0, 0 ..., 0, 0, 0]"] ;
951 -> 953 ;
954 [label="gini = 0.0\nsamples = 1\nvalue = [0, 0, 0 ..., 0, 0, 0]"] ;
953 -> 954 ;
955 [label="X[0] <= 13.5\ngini = 0.667\nsamples = 3\nvalue = [0, 0, 0 ..., 0, 0, 0]"] ;
953 -> 955 ;
956 [label="gini = 0.0\nsamples = 1\nvalue = [0, 0, 0 ..., 0, 0, 0]"] ;
955 -> 956 ;
957 [label="X[0] <= 14.5\ngini = 0.5\nsamples = 2\nvalue = [0, 0, 0 ..., 0, 0, 0]"] ;
955 -> 957 ;
958 [label="gini = 0.0\nsamples = 1\nvalue = [0, 0, 0 ..., 0, 0, 0]"] ;
957 -> 958 ;
959 [label="gini = 0.0\nsamples = 1\nvalue = [0, 0, 0 ..., 0, 0, 0]"] ;
957 -> 959 ;
960 [label="X[0] <= 9.5\ngini = 0.857\nsamples = 7\nvalue = [0, 0, 0 ..., 0, 0, 0]"] ;
946 -> 960 ;
961 [label="gini = 0.0\nsamples = 1\nvalue = [0, 0, 0 ..., 0, 0, 0]"] ;
960 -> 961 ;
962 [label="X[0] <= 10.5\ngini = 0.833\nsamples = 6\nvalue = [0, 0, 0 ..., 0, 0, 0]"] ;
960 -> 962 ;
963 [label="gini = 0.0\nsamples = 1\nvalue = [0, 0, 0 ..., 0, 0, 0]"] ;
962 -> 963 ;
964 [label="X[0] <= 11.5\ngini = 0.8\nsamples = 5\nvalue = [0, 0, 0 ..., 0, 0, 0]"] ;
962 -> 964 ;
965 [label="gini = 0.0\nsamples = 1\nvalue = [0, 0, 0 ..., 0, 0, 0]"] ;
964 -> 965 ;
966 [label="X[0] <= 12.5\ngini = 0.75\nsamples = 4\nvalue = [0, 0, 0 ..., 0, 0, 0]"] ;
964 -> 966 ;
967 [label="gini = 0.0\nsamples = 1\nvalue = [0, 0, 0 ..., 0, 0, 0]"] ;
966 -> 967 ;
968 [label="X[0] <= 13.5\ngini = 0.667\nsamples = 3\nvalue = [0, 0, 0 ..., 0, 0, 0]"] ;
966 -> 968 ;
969 [label="gini = 0.0\nsamples = 1\nvalue = [0, 0, 0 ..., 0, 0, 0]"] ;
968 -> 969 ;
970 [label="X[0] <= 14.5\ngini = 0.5\nsamples = 2\nvalue = [0, 0, 0 ..., 0, 0, 0]"] ;
968 -> 970 ;
971 [label="gini = 0.0\nsamples = 1\nvalue = [0, 0, 0 ..., 0, 0, 0]"] ;
970 -> 971 ;
972 [label="gini = 0.0\nsamples = 1\nvalue = [0, 0, 0 ..., 0, 0, 0]"] ;
970 -> 972 ;
973 [label="X[2] <= 19.0\ngini = 0.992\nsamples = 130\nvalue = [0, 0, 0 ..., 0, 0, 0]"] ;
843 -> 973 ;
974 [label="X[0] <= 3.5\ngini = 0.985\nsamples = 65\nvalue = [0, 0, 0 ..., 0, 0, 0]"] ;
973 -> 974 ;
975 [label="X[1] <= 3.5\ngini = 0.8\nsamples = 5\nvalue = [0, 0, 0 ..., 0, 0, 0]"] ;
974 -> 975 ;
976 [label="gini = 0.0\nsamples = 1\nvalue = [0, 0, 0 ..., 0, 0, 0]"] ;
975 -> 976 ;
977 [label="X[1] <= 4.5\ngini = 0.75\nsamples = 4\nvalue = [0, 0, 0 ..., 0, 0, 0]"] ;
975 -> 977 ;
978 [label="gini = 0.0\nsamples = 1\nvalue = [0, 0, 0 ..., 0, 0, 0]"] ;
977 -> 978 ;
979 [label="X[1] <= 5.5\ngini = 0.667\nsamples = 3\nvalue = [0, 0, 0 ..., 0, 0, 0]"] ;
977 -> 979 ;
980 [label="gini = 0.0\nsamples = 1\nvalue = [0, 0, 0 ..., 0, 0, 0]"] ;
979 -> 980 ;
981 [label="X[1] <= 6.5\ngini = 0.5\nsamples = 2\nvalue = [0, 0, 0 ..., 0, 0, 0]"] ;
979 -> 981 ;
982 [label="gini = 0.0\nsamples = 1\nvalue = [0, 0, 0 ..., 0, 0, 0]"] ;
981 -> 982 ;
983 [label="gini = 0.0\nsamples = 1\nvalue = [0, 0, 0 ..., 0, 0, 0]"] ;
981 -> 983 ;
984 [label="X[1] <= 3.5\ngini = 0.983\nsamples = 60\nvalue = [0, 0, 0 ..., 0, 0, 0]"] ;
974 -> 984 ;
985 [label="X[0] <= 4.5\ngini = 0.917\nsamples = 12\nvalue = [0, 0, 0 ..., 0, 0, 0]"] ;
984 -> 985 ;
986 [label="gini = 0.0\nsamples = 1\nvalue = [0, 0, 0 ..., 0, 0, 0]"] ;
985 -> 986 ;
987 [label="X[0] <= 5.5\ngini = 0.909\nsamples = 11\nvalue = [0, 0, 0 ..., 0, 0, 0]"] ;
985 -> 987 ;
988 [label="gini = 0.0\nsamples = 1\nvalue = [0, 0, 0 ..., 0, 0, 0]"] ;
987 -> 988 ;
989 [label="X[0] <= 6.5\ngini = 0.9\nsamples = 10\nvalue = [0, 0, 0 ..., 0, 0, 0]"] ;
987 -> 989 ;
990 [label="gini = 0.0\nsamples = 1\nvalue = [0, 0, 0 ..., 0, 0, 0]"] ;
989 -> 990 ;
991 [label="X[0] <= 7.5\ngini = 0.889\nsamples = 9\nvalue = [0, 0, 0 ..., 0, 0, 0]"] ;
989 -> 991 ;
992 [label="gini = 0.0\nsamples = 1\nvalue = [0, 0, 0 ..., 0, 0, 0]"] ;
991 -> 992 ;
993 [label="X[0] <= 8.5\ngini = 0.875\nsamples = 8\nvalue = [0, 0, 0 ..., 0, 0, 0]"] ;
991 -> 993 ;
994 [label="gini = 0.0\nsamples = 1\nvalue = [0, 0, 0 ..., 0, 0, 0]"] ;
993 -> 994 ;
995 [label="X[0] <= 9.5\ngini = 0.857\nsamples = 7\nvalue = [0, 0, 0 ..., 0, 0, 0]"] ;
993 -> 995 ;
996 [label="gini = 0.0\nsamples = 1\nvalue = [0, 0, 0 ..., 0, 0, 0]"] ;
995 -> 996 ;
997 [label="X[0] <= 10.5\ngini = 0.833\nsamples = 6\nvalue = [0, 0, 0 ..., 0, 0, 0]"] ;
995 -> 997 ;
998 [label="gini = 0.0\nsamples = 1\nvalue = [0, 0, 0 ..., 0, 0, 0]"] ;
997 -> 998 ;
999 [label="X[0] <= 11.5\ngini = 0.8\nsamples = 5\nvalue = [0, 0, 0 ..., 0, 0, 0]"] ;
997 -> 999 ;
1000 [label="gini = 0.0\nsamples = 1\nvalue = [0, 0, 0 ..., 0, 0, 0]"] ;
999 -> 1000 ;
1001 [label="X[0] <= 12.5\ngini = 0.75\nsamples = 4\nvalue = [0, 0, 0 ..., 0, 0, 0]"] ;
999 -> 1001 ;
1002 [label="gini = 0.0\nsamples = 1\nvalue = [0, 0, 0 ..., 0, 0, 0]"] ;
1001 -> 1002 ;
1003 [label="X[0] <= 13.5\ngini = 0.667\nsamples = 3\nvalue = [0, 0, 0 ..., 0, 0, 0]"] ;
1001 -> 1003 ;
1004 [label="gini = 0.0\nsamples = 1\nvalue = [0, 0, 0 ..., 0, 0, 0]"] ;
1003 -> 1004 ;
1005 [label="X[0] <= 14.5\ngini = 0.5\nsamples = 2\nvalue = [0, 0, 0 ..., 0, 0, 0]"] ;
1003 -> 1005 ;
1006 [label="gini = 0.0\nsamples = 1\nvalue = [0, 0, 0 ..., 0, 0, 0]"] ;
1005 -> 1006 ;
1007 [label="gini = 0.0\nsamples = 1\nvalue = [0, 0, 0 ..., 0, 0, 0]"] ;
1005 -> 1007 ;
1008 [label="X[1] <= 4.5\ngini = 0.979\nsamples = 48\nvalue = [0, 0, 0 ..., 0, 0, 0]"] ;
984 -> 1008 ;
1009 [label="X[0] <= 4.5\ngini = 0.917\nsamples = 12\nvalue = [0, 0, 0 ..., 0, 0, 0]"] ;
1008 -> 1009 ;
1010 [label="gini = 0.0\nsamples = 1\nvalue = [0, 0, 0 ..., 0, 0, 0]"] ;
1009 -> 1010 ;
1011 [label="X[0] <= 5.5\ngini = 0.909\nsamples = 11\nvalue = [0, 0, 0 ..., 0, 0, 0]"] ;
1009 -> 1011 ;
1012 [label="gini = 0.0\nsamples = 1\nvalue = [0, 0, 0 ..., 0, 0, 0]"] ;
1011 -> 1012 ;
1013 [label="X[0] <= 6.5\ngini = 0.9\nsamples = 10\nvalue = [0, 0, 0 ..., 0, 0, 0]"] ;
1011 -> 1013 ;
1014 [label="gini = 0.0\nsamples = 1\nvalue = [0, 0, 0 ..., 0, 0, 0]"] ;
1013 -> 1014 ;
1015 [label="X[0] <= 7.5\ngini = 0.889\nsamples = 9\nvalue = [0, 0, 0 ..., 0, 0, 0]"] ;
1013 -> 1015 ;
1016 [label="gini = 0.0\nsamples = 1\nvalue = [0, 0, 0 ..., 0, 0, 0]"] ;
1015 -> 1016 ;
1017 [label="X[0] <= 8.5\ngini = 0.875\nsamples = 8\nvalue = [0, 0, 0 ..., 0, 0, 0]"] ;
1015 -> 1017 ;
1018 [label="gini = 0.0\nsamples = 1\nvalue = [0, 0, 0 ..., 0, 0, 0]"] ;
1017 -> 1018 ;
1019 [label="X[0] <= 9.5\ngini = 0.857\nsamples = 7\nvalue = [0, 0, 0 ..., 0, 0, 0]"] ;
1017 -> 1019 ;
1020 [label="gini = 0.0\nsamples = 1\nvalue = [0, 0, 0 ..., 0, 0, 0]"] ;
1019 -> 1020 ;
1021 [label="X[0] <= 10.5\ngini = 0.833\nsamples = 6\nvalue = [0, 0, 0 ..., 0, 0, 0]"] ;
1019 -> 1021 ;
1022 [label="gini = 0.0\nsamples = 1\nvalue = [0, 0, 0 ..., 0, 0, 0]"] ;
1021 -> 1022 ;
1023 [label="X[0] <= 11.5\ngini = 0.8\nsamples = 5\nvalue = [0, 0, 0 ..., 0, 0, 0]"] ;
1021 -> 1023 ;
1024 [label="gini = 0.0\nsamples = 1\nvalue = [0, 0, 0 ..., 0, 0, 0]"] ;
1023 -> 1024 ;
1025 [label="X[0] <= 12.5\ngini = 0.75\nsamples = 4\nvalue = [0, 0, 0 ..., 0, 0, 0]"] ;
1023 -> 1025 ;
1026 [label="gini = 0.0\nsamples = 1\nvalue = [0, 0, 0 ..., 0, 0, 0]"] ;
1025 -> 1026 ;
1027 [label="X[0] <= 13.5\ngini = 0.667\nsamples = 3\nvalue = [0, 0, 0 ..., 0, 0, 0]"] ;
1025 -> 1027 ;
1028 [label="gini = 0.0\nsamples = 1\nvalue = [0, 0, 0 ..., 0, 0, 0]"] ;
1027 -> 1028 ;
1029 [label="X[0] <= 14.5\ngini = 0.5\nsamples = 2\nvalue = [0, 0, 0 ..., 0, 0, 0]"] ;
1027 -> 1029 ;
1030 [label="gini = 0.0\nsamples = 1\nvalue = [0, 0, 0 ..., 0, 0, 0]"] ;
1029 -> 1030 ;
1031 [label="gini = 0.0\nsamples = 1\nvalue = [0, 0, 0 ..., 0, 0, 0]"] ;
1029 -> 1031 ;
1032 [label="X[1] <= 5.5\ngini = 0.972\nsamples = 36\nvalue = [0, 0, 0 ..., 0, 0, 0]"] ;
1008 -> 1032 ;
1033 [label="X[0] <= 4.5\ngini = 0.917\nsamples = 12\nvalue = [0, 0, 0 ..., 0, 0, 0]"] ;
1032 -> 1033 ;
1034 [label="gini = 0.0\nsamples = 1\nvalue = [0, 0, 0 ..., 0, 0, 0]"] ;
1033 -> 1034 ;
1035 [label="X[0] <= 5.5\ngini = 0.909\nsamples = 11\nvalue = [0, 0, 0 ..., 0, 0, 0]"] ;
1033 -> 1035 ;
1036 [label="gini = 0.0\nsamples = 1\nvalue = [0, 0, 0 ..., 0, 0, 0]"] ;
1035 -> 1036 ;
1037 [label="X[0] <= 6.5\ngini = 0.9\nsamples = 10\nvalue = [0, 0, 0 ..., 0, 0, 0]"] ;
1035 -> 1037 ;
1038 [label="gini = 0.0\nsamples = 1\nvalue = [0, 0, 0 ..., 0, 0, 0]"] ;
1037 -> 1038 ;
1039 [label="X[0] <= 7.5\ngini = 0.889\nsamples = 9\nvalue = [0, 0, 0 ..., 0, 0, 0]"] ;
1037 -> 1039 ;
1040 [label="gini = 0.0\nsamples = 1\nvalue = [0, 0, 0 ..., 0, 0, 0]"] ;
1039 -> 1040 ;
1041 [label="X[0] <= 8.5\ngini = 0.875\nsamples = 8\nvalue = [0, 0, 0 ..., 0, 0, 0]"] ;
1039 -> 1041 ;
1042 [label="gini = 0.0\nsamples = 1\nvalue = [0, 0, 0 ..., 0, 0, 0]"] ;
1041 -> 1042 ;
1043 [label="X[0] <= 9.5\ngini = 0.857\nsamples = 7\nvalue = [0, 0, 0 ..., 0, 0, 0]"] ;
1041 -> 1043 ;
1044 [label="gini = 0.0\nsamples = 1\nvalue = [0, 0, 0 ..., 0, 0, 0]"] ;
1043 -> 1044 ;
1045 [label="X[0] <= 10.5\ngini = 0.833\nsamples = 6\nvalue = [0, 0, 0 ..., 0, 0, 0]"] ;
1043 -> 1045 ;
1046 [label="gini = 0.0\nsamples = 1\nvalue = [0, 0, 0 ..., 0, 0, 0]"] ;
1045 -> 1046 ;
1047 [label="X[0] <= 11.5\ngini = 0.8\nsamples = 5\nvalue = [0, 0, 0 ..., 0, 0, 0]"] ;
1045 -> 1047 ;
1048 [label="gini = 0.0\nsamples = 1\nvalue = [0, 0, 0 ..., 0, 0, 0]"] ;
1047 -> 1048 ;
1049 [label="X[0] <= 12.5\ngini = 0.75\nsamples = 4\nvalue = [0, 0, 0 ..., 0, 0, 0]"] ;
1047 -> 1049 ;
1050 [label="gini = 0.0\nsamples = 1\nvalue = [0, 0, 0 ..., 0, 0, 0]"] ;
1049 -> 1050 ;
1051 [label="X[0] <= 13.5\ngini = 0.667\nsamples = 3\nvalue = [0, 0, 0 ..., 0, 0, 0]"] ;
1049 -> 1051 ;
1052 [label="gini = 0.0\nsamples = 1\nvalue = [0, 0, 0 ..., 0, 0, 0]"] ;
1051 -> 1052 ;
1053 [label="X[0] <= 14.5\ngini = 0.5\nsamples = 2\nvalue = [0, 0, 0 ..., 0, 0, 0]"] ;
1051 -> 1053 ;
1054 [label="gini = 0.0\nsamples = 1\nvalue = [0, 0, 0 ..., 0, 0, 0]"] ;
1053 -> 1054 ;
1055 [label="gini = 0.0\nsamples = 1\nvalue = [0, 0, 0 ..., 0, 0, 0]"] ;
1053 -> 1055 ;
1056 [label="X[0] <= 4.5\ngini = 0.958\nsamples = 24\nvalue = [0, 0, 0 ..., 0, 0, 0]"] ;
1032 -> 1056 ;
1057 [label="X[1] <= 6.5\ngini = 0.5\nsamples = 2\nvalue = [0, 0, 0 ..., 0, 0, 0]"] ;
1056 -> 1057 ;
1058 [label="gini = 0.0\nsamples = 1\nvalue = [0, 0, 0 ..., 0, 0, 0]"] ;
1057 -> 1058 ;
1059 [label="gini = 0.0\nsamples = 1\nvalue = [0, 0, 0 ..., 0, 0, 0]"] ;
1057 -> 1059 ;
1060 [label="X[0] <= 5.5\ngini = 0.955\nsamples = 22\nvalue = [0, 0, 0 ..., 0, 0, 0]"] ;
1056 -> 1060 ;
1061 [label="X[1] <= 6.5\ngini = 0.5\nsamples = 2\nvalue = [0, 0, 0 ..., 0, 0, 0]"] ;
1060 -> 1061 ;
1062 [label="gini = 0.0\nsamples = 1\nvalue = [0, 0, 0 ..., 0, 0, 0]"] ;
1061 -> 1062 ;
1063 [label="gini = 0.0\nsamples = 1\nvalue = [0, 0, 0 ..., 0, 0, 0]"] ;
1061 -> 1063 ;
1064 [label="X[1] <= 6.5\ngini = 0.95\nsamples = 20\nvalue = [0, 0, 0 ..., 0, 0, 0]"] ;
1060 -> 1064 ;
1065 [label="X[0] <= 6.5\ngini = 0.9\nsamples = 10\nvalue = [0, 0, 0 ..., 0, 0, 0]"] ;
1064 -> 1065 ;
1066 [label="gini = 0.0\nsamples = 1\nvalue = [0, 0, 0 ..., 0, 0, 0]"] ;
1065 -> 1066 ;
1067 [label="X[0] <= 7.5\ngini = 0.889\nsamples = 9\nvalue = [0, 0, 0 ..., 0, 0, 0]"] ;
1065 -> 1067 ;
1068 [label="gini = 0.0\nsamples = 1\nvalue = [0, 0, 0 ..., 0, 0, 0]"] ;
1067 -> 1068 ;
1069 [label="X[0] <= 8.5\ngini = 0.875\nsamples = 8\nvalue = [0, 0, 0 ..., 0, 0, 0]"] ;
1067 -> 1069 ;
1070 [label="gini = 0.0\nsamples = 1\nvalue = [0, 0, 0 ..., 0, 0, 0]"] ;
1069 -> 1070 ;
1071 [label="X[0] <= 9.5\ngini = 0.857\nsamples = 7\nvalue = [0, 0, 0 ..., 0, 0, 0]"] ;
1069 -> 1071 ;
1072 [label="gini = 0.0\nsamples = 1\nvalue = [0, 0, 0 ..., 0, 0, 0]"] ;
1071 -> 1072 ;
1073 [label="X[0] <= 10.5\ngini = 0.833\nsamples = 6\nvalue = [0, 0, 0 ..., 0, 0, 0]"] ;
1071 -> 1073 ;
1074 [label="gini = 0.0\nsamples = 1\nvalue = [0, 0, 0 ..., 0, 0, 0]"] ;
1073 -> 1074 ;
1075 [label="X[0] <= 11.5\ngini = 0.8\nsamples = 5\nvalue = [0, 0, 0 ..., 0, 0, 0]"] ;
1073 -> 1075 ;
1076 [label="gini = 0.0\nsamples = 1\nvalue = [0, 0, 0 ..., 0, 0, 0]"] ;
1075 -> 1076 ;
1077 [label="X[0] <= 12.5\ngini = 0.75\nsamples = 4\nvalue = [0, 0, 0 ..., 0, 0, 0]"] ;
1075 -> 1077 ;
1078 [label="gini = 0.0\nsamples = 1\nvalue = [0, 0, 0 ..., 0, 0, 0]"] ;
1077 -> 1078 ;
1079 [label="X[0] <= 13.5\ngini = 0.667\nsamples = 3\nvalue = [0, 0, 0 ..., 0, 0, 0]"] ;
1077 -> 1079 ;
